a	0.074725345	-0.03949581	0.0025245624	0.03426985	-0.038929082	0.008494067	-0.012409529	0.00023361668	-0.09610087	0.0652118	-0.047140867	-0.008967523	0.059896123	-0.0036350552	0.09028918	-0.016774401	0.0090424325	0.006547832	0.060212	-0.028852504	-0.050989352	-0.006395079	0.017629588	-0.004458912	0.0033384447	-0.062352717	-0.062278226	-0.030740721	0.081344284	0.07225054	-0.015466159	-0.06733253	0.0090667205	0.062555775	-0.013374447	0.032569267	-0.0072415126	-0.0006931076	0.02659017	0.044838864	-0.06048459	-0.029964888	-0.03242066	0.049336974	0.071630724	0.024547212	0.0028841915	0.07755725	-0.031695973	-0.023019005	-0.07426609	-0.038772088	0.00851275	0.045223348	0.05846339	-0.04157082	0.0023121806	0.016942862	-0.025314791	-0.09695951	0.0141859595	-0.0723957	0.049079448	0.052744493	0.01386991	0.014704176	0.078254506	-0.06704232	-0.0046132347	0.068507075	-0.006946582	0.0023486137	0.01433929	-0.067850016	0.030526629	-0.045563318	0.07312372	0.05987738	-0.07845333	0.06435935	-0.048101056	-0.09724315	-0.033195596	0.078835316	0.021739062	0.07590364	-0.06444456	-0.041226514	-0.031600937	-0.019636268	-0.0279125	-0.010691881	0.023510737	-0.020148171	-0.049202368	0.072135314	0.069421716	-0.06480042	-0.057056837	0.005013541	-1.7534738e-05	-0.022288995	-0.05940106	0.021400241	0.030356795	0.029376991	0.029595401	-0.052603018	0.058517605	0.044901866	0.06456	-0.004722036	0.07752768	0.03447296	0.063962825	-0.0013955168	-0.0026524996	0.014352956	0.07408018	-0.011189535	0.029359017	-0.059734862	0.006736067	-0.0135229165	-0.044250693	0.064265124	-0.011710469	0.055915	0.017357212	0.053813223	0.009718251	0.040997133	0.019363495	-0.08265925	0.08253784	0.028861698	0.025225969	-0.07168122	-0.051394135	0.002885381	-0.03846007	0.06974221	0.031871855	0.07117642	0.0320722	-0.055162057	-0.03762103	0.0026167452	-0.007563933	-0.007566695	-0.033892095	-0.0006575123	-0.005062757	-0.020048607	-0.073809914	0.0033274335	-0.02870033	-0.021608777	0.0043035084	-0.08008648	0.017963117	0.019644955	-0.021264458	0.024415035	0.030559257	0.045630362	0.013738064	0.0035994346	0.004041115	-0.025308933	0.026303768	0.047211155	-0.03477484	0.032077443	-0.019190557	0.006156546	-0.057210043	0.07800081	-0.029327894	0.04882291	0.0322544	-0.050517138	0.006632924	-0.013686556	0.0074680285	0.007301006	0.05135637	-0.023678632	-0.05672938	-0.09142458	-0.004600176	-0.0034152947	0.0066803265	0.06096024	-0.039749943	0.029419819	-0.023997718	-0.056889184	-0.06206349	-0.0005551184	0.01415755	-0.00077077857	0.019265974	-0.03532138	-0.035237376	0.010746011	0.064938135	-0.012575981	0.0453675	0.0071305563	0.0050065555	-0.030676434	0.025166335	-0.04873638	-0.07885861	-0.044203166	0.015656963	-0.013236306	-0.045484595	-0.04656521	0.014236508	0.012607968	0.016667094	-0.0129988175	0.047993407	0.015457858	-0.03466797	-0.030642863	-0.039191242	0.04982856	-0.014833411	-0.03065133	0.0013914129	0.04086146	0.025475303	0.024080558	0.039949514	-0.05017436	-0.0073963045	-0.06759161	-0.04517952	0.009414144	-0.018122071	0.017143654	-0.020407014	0.019051341	-0.0115454	-0.017391771	0.04360966	-0.0062614004	0.00056832517	0.10511406	0.0011904157	-0.0100554535	0.04519632	-0.029214814	0.011636089	-0.0015830086	0.084173694	-0.04673837	0.07071122	-0.036418617	0.0065643718	-0.054679	0.03470367	-0.033595175	-0.0823003	0.022761742	-0.052019566	0.05245053	-0.0139033785	-0.042614583	0.015513783	-0.033030532	-0.040515423	-0.03126414	-0.022220582	0.09886266	-0.013063877	0.03628675	-0.004986608	-0.040703736	-0.020901704	0.02797261	0.03983243	0.016654387	-0.05536704	-0.06375766	0.06824845	0.0020615545	-0.056359526	-0.0893142	0.024839789	-0.023715714	0.066671	-0.06613698	0.057669032	0.032249324	-0.021541456	-0.05962982	0.05422564	0.006794486	0.04335922	0.042032808	-0.030555056	-0.030601762	-0.014205862	0.05749561	-0.038410578	0.012140649	-0.061038196	-0.043380123	0.056208342	0.07827043	-0.032073133	-0.01191857	0.0064668264	0.008681287	-0.045094386	-0.072632104	0.050737504	-0.07092602	-0.023816729	0.03991172	0.0018267571	0.013290949	0.018152446	0.035808444	0.016869579	-0.053157914	-0.06508148	0.060233075	0.013861897	-0.08024951	0.057592783	-0.058434557	-0.09338311	-0.07930772	-0.022086073	-0.028776515	-0.00044932886	-0.039757736	0.043517683	0.043597464	0.09817391	0.015738115	-0.009351488	0.07482402	-0.031300444	-0.021215262	0.021128964	0.08352672	-0.06453593	-0.0032194485	0.019388698	-0.047195062	0.03147852	-0.053940974	0.0394705	0.0073727746	0.038404226	0.080357075	0.025935717	0.0104436735	-0.07544732	-0.0031360288	0.09139079	0.022168448	0.04613881	0.032749414	0.014636055	-0.013310721	-0.043252807	0.018293088	0.0005406614	0.027296718	0.044820465	0.0006830758	-0.0051347455	0.043413218	0.012124357	0.015816411	-0.09156469	-0.07190884	-0.0898725	0.0930166	0.029686417	-0.0438155	0.04331369	-0.07313837	-0.007166512	-0.023391407	0.060949933	0.06745529	0.05605584	0.011471697	-0.022902543	-0.002948294	0.07680452	0.025132501	-0.06848654	-0.01780145	0.085726164	0.030626286	-0.023546623	-0.01048877	-0.060263827	0.0080280965	0.022149885	0.023670992	-0.014296053	0.052879583	0.019570582	-0.034024883	-0.0019620135	-0.07585758	-0.02600823	-0.03499019	-0.078989886	-0.025995232	-0.03957241	0.0063186726	-0.034092166	-0.07920734	-0.0014374149	-0.02356585	0.005102404	-0.027069008	-0.07146726	-0.060594484	-0.011345153	0.080271624	-0.08245053	0.036659025	0.058613263	0.021387216	0.036197584	0.021674408	-0.013094353	-0.038044363	0.028616719	-0.0089993095	0.09412134	-0.029974975	0.023175837	-0.010904061	-0.029992118	-0.06486295	0.03793207	0.03308308	-0.04258679	-0.015161846	-0.008124892	-0.032103088	-0.028243441	-0.048167147	0.030499255	-0.025546398	-0.021829316	0.036319394	-0.05476513	-0.01580849	-0.056938816	0.010635588	-0.066231854	0.085223526	-0.023570046	-0.028093347	0.04677493	0.093083955	0.018053532	0.040740374	-0.09318201	0.0006619692	-0.06476563	0.075537376	0.09453595	-0.030253457	-0.041741844	0.06854559	-0.022829778	-0.03604083	-0.07781714	0.051696647	0.04521282	-0.022009883	-0.0032981336	0.017089237	0.020096576	0.002090495	-0.014345919	0.05444867	0.025781838	0.038451564	0.040124066	0.012858904	0.036475267	0.0036845831	-0.002532239	0.015545768	0.012624448	-0.024029195	0.0074159554	0.055282798	0.004546197	-0.02125628	-0.012399096	0.0062858094	0.028541215	0.06539803	0.0021276781	0.030578205	
b	0.05262964	-0.014368509	0.018134547	0.035851065	-0.008717004	0.011997186	-0.01764023	-0.002705214	-0.101393096	0.07487055	-0.023446718	-0.024436438	0.044865955	0.015150497	0.0855185	-0.015881157	0.01937853	0.038210828	0.02609999	0.003224016	-0.045155294	0.0006692536	0.037103523	0.0030710325	0.029679516	-0.0756978	-0.077139825	-0.031420115	0.04767507	0.09140158	-0.012350946	-0.046796914	-0.02484997	0.07876921	0.006507645	0.0052835047	0.0021476573	-0.036070466	0.030453477	0.05948815	-0.058308505	-0.025529448	-0.053582683	0.049725026	0.06245158	0.033354755	-0.0063087805	0.038266394	-0.06827597	-0.012233196	-0.030043678	-0.06322669	0.0037156686	0.029357502	0.03924812	-0.047960084	0.01424212	0.040230915	-0.03748178	-0.09870766	-0.012078739	-0.07000665	0.038132217	0.06776661	-0.0114585245	0.025858961	0.049822982	-0.067095935	-0.010467567	0.069859244	-0.000279297	-0.012288332	0.01553815	-0.04237866	-0.007935496	-0.026482191	0.07492095	0.08404373	-0.06624935	0.053846426	-0.037334614	-0.08023977	-0.020022744	0.07713939	0.026751716	0.071524724	-0.07561151	-0.018184546	-0.019081494	-0.013491607	-0.025450738	-0.038339213	0.009321543	0.0154582355	-0.025688725	0.054004204	0.050710414	-0.045874514	-0.06134298	0.017048527	-0.02398659	-0.036220156	-0.07753244	-0.01946466	0.05735073	0.05970433	0.060048517	-0.0715298	0.051269002	0.009445302	0.05716586	-0.0013538061	0.08029734	0.015422986	0.04112703	-0.0078045423	-0.009189586	0.010736409	0.07435882	0.027687207	0.052124638	-0.03594955	-0.018249262	-0.01630853	-0.015181025	0.07059839	0.021050738	0.054220237	0.03596575	0.0546609	-0.0007388121	0.05947963	0.06402212	-0.07495653	0.10102758	0.009047235	0.045257546	-0.06337431	-0.017974697	0.006150316	-0.05314994	0.06713084	0.04363839	0.07612202	0.040132325	-0.03877187	-0.02825776	-0.010774226	0.021024738	-0.007906323	-0.04270143	7.9575155e-05	-0.02759757	-0.024260966	-0.08410163	-0.0187542	-0.02079636	-0.016869182	-0.02652597	-0.08036407	0.022494625	0.017708054	-0.026184535	0.034526892	0.023217658	0.040908914	-0.02246569	0.04922744	-0.02637337	-0.013645433	-0.00869821	0.03407236	-0.019380901	0.027535077	0.004119901	0.0013597476	-0.052980967	0.08019808	-0.029500676	0.0408488	0.039315544	-0.06324906	-0.023407275	-0.033869512	-0.018824914	-0.012880709	0.039326724	-0.0067734327	-0.057941616	-0.09038634	-0.028104315	-0.020137778	-0.0324296	0.04899132	0.0025976435	0.004929663	-0.026450217	-0.06381992	-0.068000324	-0.03413077	0.009686256	-0.032759685	-0.006902644	-0.01888346	-0.025477976	-0.019473558	0.0436147	-0.020822268	0.07349431	-0.029102666	-0.0011546608	0.0005102182	0.0007076292	-0.033804573	-0.056539617	-0.019017331	0.022319607	-0.017428475	-0.010852821	-0.03978528	0.048490565	0.032659557	0.003912719	-0.045300182	0.033047516	-0.031605445	-0.037528414	-0.028937146	-0.029659452	0.042472467	-0.04221897	-0.0370511	-0.017776333	0.05261642	0.0038127846	-0.0044478956	0.047486126	-0.039541543	0.021716561	-0.05390464	-0.06913891	-0.0035674563	-0.022390902	-0.0024009652	-0.0070497473	0.03709982	-0.014063409	-0.018161617	0.058070045	-0.012174138	-0.0025199784	0.1091824	-0.0004995279	-0.016477922	0.059047066	-0.027690459	0.0021149127	0.009723393	0.08598797	-0.05963737	0.057111394	-0.037018407	0.0394518	-0.042044435	0.050706625	-0.054196633	-0.07878466	-0.0074509275	-0.021351421	0.039057683	0.009848798	-0.03552464	0.0050320555	-0.02502193	-0.02658789	-0.0071703102	-0.03657441	0.09775197	-0.02647713	0.040536355	0.048701715	-0.039412655	-0.0037963248	0.004016561	0.0007342205	0.036904138	-0.06233345	-0.05078006	0.05434513	0.011299162	-0.055763833	-0.08415617	0.020954166	0.005768867	0.059351098	-0.036358636	0.07987401	0.01455127	-0.026659634	-0.03917058	0.06698708	0.053510405	0.026829673	0.05055684	-0.06536184	-0.005487394	-0.027666187	0.0775197	-0.041374568	0.0030480346	-0.06464245	-0.0767356	0.04516696	0.083162606	-0.03469385	-0.0076609477	0.007467867	0.03405689	-0.06417466	-0.074271016	0.032484695	-0.044457186	-0.0051288228	0.019873274	-0.036290254	0.0019793126	-0.021085342	0.034026075	0.012972687	-0.01783342	-0.076413035	0.04288236	0.02495993	-0.06452715	0.05780933	-0.057343464	-0.09365369	-0.05449869	-0.02174106	-0.008663473	0.009607894	-0.02470117	0.00774952	0.050699428	0.10216722	0.035460025	0.025154417	0.059826117	-0.075074926	-0.027051073	0.016023556	0.06413108	-0.052527416	-0.013995639	0.04916639	-0.043480914	0.05098636	-0.036634523	0.05672163	0.0047946	0.006223447	0.08840126	0.045478642	0.0016538583	-0.094334066	0.029274995	0.0994415	0.051129628	0.031895638	0.014032228	0.012792851	0.021267783	-0.023454856	0.018423473	-0.004981523	0.051600773	0.006318065	0.03429736	-0.007024541	0.036754146	-0.008808522	0.040414587	-0.096004866	-0.054743085	-0.09178395	0.09566034	0.0071293586	-0.0382896	0.054757938	-0.07920828	0.024185766	-0.06285506	0.004105787	0.010340868	0.022505911	-0.01522177	-0.013788253	-0.01871176	0.083092555	0.044250183	-0.06764454	-0.017879844	0.08188678	0.026436077	-0.038848195	0.008381185	-0.056247506	0.0069583477	-0.02072627	0.027619684	0.01986901	0.055954218	0.013670827	-0.050252754	0.046175815	-0.0738622	-0.03186632	-0.046220597	-0.06246604	0.030311001	-0.033794723	-0.0030179045	-0.008196554	-0.057540584	0.015271155	-0.014374838	0.04333486	-0.039057165	-0.06365135	-0.07029311	-0.014957762	0.045575745	-0.09049427	0.010717044	0.049599253	0.00916903	0.044452667	-0.008855077	-0.0150411045	-0.035500523	0.027761616	0.0066272146	0.0828631	-0.001054235	0.025198348	-0.018024141	-0.019767845	-0.053435054	0.03716806	0.011109408	-0.030606877	0.012846825	-0.005868573	-0.027535113	-0.0377089	-0.065841995	0.044649567	-0.05885947	0.018236728	0.023186572	-0.069742054	-0.022393085	-0.070473194	-0.028026763	-0.019407824	0.08663226	-0.049004845	-0.03919322	0.047760252	0.09532679	-0.012347181	0.046974413	-0.09505147	-0.02846882	-0.07245704	0.046004586	0.09530203	-0.015792163	-0.07506572	0.029552286	-0.02684726	-0.01801129	-0.07753722	0.05600445	0.037038904	-0.035423305	-0.010574734	0.011646823	0.019874366	0.0059470874	-0.049256187	0.041246917	-0.0055083674	0.045089383	0.026970789	0.019113362	0.03794178	0.0031791585	0.01990702	0.016285533	-0.026270894	-0.0018581678	0.007739105	0.0412471	-0.01099611	-0.032987006	-0.025224863	-0.017256927	0.06735242	0.06457271	-0.021493956	0.013668128	
c	0.06454614	-0.025257502	0.024638472	0.028369771	-0.021998014	0.017769795	-0.048260402	0.016266843	-0.09431578	0.07315226	-0.030138103	-0.013997024	0.06906294	0.009625891	0.0832057	-0.006268322	0.015009524	0.008487701	0.006094343	-0.0025635094	-0.03702243	-0.034092344	0.02867452	0.007967133	0.033887275	-0.08818038	-0.08917916	-0.02801266	0.048562497	0.06464337	-0.02325805	-0.059094947	0.0030381726	0.07347837	0.050529085	0.04628704	-0.027910003	-0.05763809	0.027189761	0.041841015	-0.022667062	-0.015510407	-0.04674143	0.057476163	0.06453049	0.032180138	-0.026456833	0.059442177	-0.04843538	0.0049288487	-0.044875596	-0.06015844	0.017199501	0.04480084	0.053439356	-0.041631922	-0.0056544053	0.06014671	-0.063541435	-0.09088142	-0.00548564	-0.067915305	0.037801422	0.058360856	0.047537528	0.010066075	0.03141722	-0.07052395	-0.033787705	0.070846796	-0.007298884	0.013093019	0.011910493	-0.03089716	-0.024873352	-0.044685513	0.07408318	0.06270245	-0.04195041	0.057491496	0.00051376416	-0.08896234	-0.0031960243	0.04945064	0.023506448	0.07658699	-0.0853949	-0.015989264	-0.025316106	-0.02316064	-0.039786525	-0.017899176	0.010083159	0.02331844	-0.04716763	0.045684915	0.053300314	-0.056821406	-0.032833885	0.0005951546	-0.062001906	-0.025355842	-0.076720685	-0.03401579	0.025548423	0.05846429	0.03532903	-0.075250216	0.06352803	0.048890144	0.06822207	-0.0019030279	0.06526865	0.020714445	0.059455145	-0.029342646	0.0043909173	-0.00085697917	0.060689945	0.0038918217	0.04687194	-0.04882455	-0.012340035	-0.036415145	-0.035470575	0.07810818	0.0013117457	0.036347166	0.011806056	0.0652979	-0.01824023	0.059126977	0.06794123	-0.071270645	0.093681	0.023967218	0.07123517	-0.067588486	-0.039784215	0.0068755355	-0.029092858	0.07826651	0.045440212	0.051551215	0.041556828	-0.068006635	-0.05171543	0.017059486	0.018771928	-0.021963079	-0.028843349	0.014554529	-0.016168285	-0.034301404	-0.07775463	-0.020582028	-0.03525785	-0.047513884	-0.040808734	-0.0746013	0.0015419557	0.024321854	-0.022835521	0.018131787	0.0115791	0.03659117	-0.016011119	0.031671084	-0.03742409	-0.041214194	0.0012195939	0.051775474	-0.023958905	0.027415419	-0.020801121	0.017189546	-0.043306958	0.07694391	-0.03615073	0.03371517	0.052814033	-0.064781345	-0.039249387	-0.03180643	-0.023489363	-0.023887878	0.022130746	0.016229188	-0.071740665	-0.0838889	-0.030926844	-0.030260125	-0.01968067	0.054252088	-0.01565551	0.018560719	-0.035224833	-0.06355479	-0.06724281	-0.012210893	0.015470785	-0.034204677	0.026322942	-0.01039267	-0.013269953	-0.028467445	0.058597226	-0.015090353	0.06518671	-0.015254381	0.015016253	-0.02058901	0.018003741	-0.031495795	-0.057378277	-0.038497932	0.014862294	-0.018414726	-0.03349893	-0.034458995	0.046847425	0.03795542	-0.023923986	-0.0319871	0.009236654	-0.027182732	-0.02223865	-0.068006985	-0.016180746	0.032191377	-0.031717632	-0.03161782	-0.009775068	0.030839935	0.015128203	0.0035331482	0.07341242	-0.047834337	-0.0019143915	-0.061027065	-0.06026683	0.007256619	-0.0038181366	0.029054126	0.021628581	0.027223647	0.004354707	-0.026342914	0.041252308	0.0042238226	0.022836087	0.10122484	-0.027871026	-0.04477161	0.04410269	-0.03689442	0.00776625	-0.034496196	0.09146311	-0.05803175	0.03568354	-0.035510745	0.010916887	-0.037651382	0.04565846	-0.048812233	-0.06681176	0.0009189204	-0.030542845	0.043757293	0.0100162355	-0.049869765	0.007290084	-0.017488675	-0.04007729	0.0071879034	-0.017059442	0.09119287	-0.010543309	0.053029396	0.03594266	-0.04237143	-0.004586625	0.019337287	0.007898712	0.029100036	-0.040801473	-0.05309477	0.050453525	-0.004360413	-0.052272383	-0.08470292	0.013980046	-0.010081138	0.06624743	-0.057771478	0.07525768	0.0008190174	-0.01751147	-0.034805957	0.062437233	0.03604625	0.036054786	0.058792733	-0.049373582	0.0064640096	-0.026196476	0.07174315	-0.017330937	-0.011198795	-0.036800098	-0.05969796	0.03888186	0.07487715	-0.013272858	-0.024476722	0.0086328415	-0.00032093085	-0.07403141	-0.08177955	0.024362655	-0.05146083	0.010770836	0.013337886	-0.018803742	-0.01326387	-0.009020355	0.016142348	0.028975548	-0.0011352996	-0.081768565	0.023810763	0.017884633	-0.06021885	0.05956222	-0.0756562	-0.08645827	-0.068552986	-0.028147534	-0.0075073466	0.006793806	-0.0392909	0.031488456	0.04553056	0.09344876	0.025965977	0.025072474	0.079166315	-0.07312764	-0.020088667	0.010304531	0.061349947	-0.060707577	-0.010840237	0.043221682	-0.028180365	0.05736315	-0.014642093	0.032589775	0.004264671	0.007810694	0.07744828	0.021667222	-0.012188751	-0.08532247	0.008711311	0.08991283	0.048588302	0.031532533	0.052561887	0.02464296	0.01056383	-0.0011135811	0.03513898	0.018107673	0.054824237	0.00047447844	0.023832431	-0.028101098	0.036053926	-0.028271297	0.027180836	-0.09893199	-0.06228028	-0.08332799	0.08576406	-0.003303109	-0.034486823	0.035483412	-0.078379616	0.0049956115	-0.057408545	0.014724537	0.0034550966	0.03153109	-0.02889253	-0.04879708	-0.020498784	0.08192577	0.043010402	-0.063805155	0.0029524404	0.082996294	0.031192286	-0.020649267	0.0045443415	-0.05837747	-0.004888248	0.017489541	0.032430418	-0.01272249	0.0642333	0.0009498675	-0.0653088	0.034800127	-0.07461476	-0.042950265	-0.039919734	-0.062374663	-0.008168259	-0.022224773	0.012407046	0.000377482	-0.06691767	0.00079395936	-0.026396431	0.031486023	-0.04018469	-0.0657135	-0.06721588	-0.008746757	0.060606513	-0.08107515	0.017559595	0.06461535	0.040287964	0.04888007	0.0113615105	-0.005171873	-0.06631185	0.008367075	0.016305365	0.07866863	0.003677687	0.031723615	0.002769136	-0.007944065	-0.054535568	0.048753645	0.015225956	-0.021365337	0.040228225	-0.014544484	-0.032805603	-0.012049891	-0.049025293	0.0400994	-0.03606376	-0.010930006	0.018579442	-0.07693798	-0.04918629	-0.066507764	0.016309237	-0.05292144	0.082004756	-0.0325619	-0.015211828	0.04826433	0.08760705	-0.028078495	0.03147865	-0.09235161	-0.03874443	-0.0783624	0.06324738	0.08828244	-0.015182875	-0.06390276	0.039836027	-0.026668794	-0.044127602	-0.088803455	0.057221845	0.02695011	-0.032942634	-0.03188473	-0.0011269838	0.031126423	-0.0031266538	-0.056050483	0.052601367	0.010436763	0.05334658	0.0457911	0.01300081	0.026356163	0.02374683	0.011197064	0.01840973	-0.019345859	-0.005448491	0.028420798	0.04647524	-0.011355382	-0.014658016	-0.004955842	-0.025642771	0.055779062	0.052785534	-0.00050668564	0.013008309	
d	0.074402474	-0.028464187	0.031218283	0.028275304	-0.02968736	0.017184062	-0.027414154	0.019458499	-0.09493529	0.0668005	-0.019464398	-0.022858042	0.055148646	0.013316454	0.074734665	-0.020342499	-0.009874538	0.008697847	0.028223699	-0.0242108	-0.04599206	-0.022334106	0.015238678	0.016059363	0.03361703	-0.08406072	-0.09062304	-0.029953783	0.043202866	0.08142609	0.0021997367	-0.06704135	0.0053290636	0.07612787	0.047077086	0.025143836	-0.027896082	-0.058133516	0.036620926	0.05211659	-0.0482188	-0.01574806	-0.04877352	0.04723931	0.05256092	0.02689726	-0.024968132	0.05840826	-0.0512319	0.0029320857	-0.03798906	-0.052313164	0.02331524	0.04647478	0.037039086	-0.04613264	-0.006378437	0.04430307	-0.04987358	-0.09175473	-0.009221947	-0.057228476	0.04966775	0.051746085	0.026348555	0.009803431	0.021028066	-0.04918683	-0.052591357	0.07840668	-0.020062257	0.037904274	0.010512931	-0.045257915	-0.0038402458	-0.05951809	0.067031905	0.075150035	-0.042227138	0.06455548	-0.039160382	-0.08705628	-0.011712532	0.07170707	0.035069373	0.065686814	-0.090107985	-0.024207389	-0.042679384	-0.04615847	-0.036610957	0.0014619728	0.019114725	0.0053392365	-0.066639304	0.05000769	0.045091197	-0.050447453	-0.038428377	0.0019547225	-0.039379667	-0.0012961186	-0.072130226	-0.042436212	0.035269573	0.037361026	0.02486214	-0.07433922	0.05320816	0.028025005	0.065987214	-0.010824624	0.06672521	0.014404284	0.059504803	-0.037067704	0.0059566237	0.004949937	0.08163823	0.003149696	0.043910038	-0.048797585	-0.026856419	-0.023320563	-0.039061997	0.081473656	-0.00196442	0.054727394	0.017823435	0.07210249	-0.022593068	0.050805204	0.08258012	-0.07689858	0.10295185	0.012974472	0.059174836	-0.06877779	-0.029813262	-0.013589733	-0.008477616	0.078903556	0.045815483	0.05751171	0.042177364	-0.06298291	-0.03841157	0.011425976	-0.010573007	-0.022429805	-0.040426917	0.014667025	0.009793668	-0.016172681	-0.07635767	0.0033319436	-0.02034721	-0.051658817	-0.00610043	-0.072262816	0.007039354	0.03612361	-0.00775638	0.03309905	0.01433853	0.041360892	-0.00039886375	0.02455126	-0.030997425	-0.037552204	-0.01832651	0.040104188	-0.0043155877	0.013637513	-0.017497666	0.022327363	-0.0653743	0.07176007	-0.04673003	0.034174178	0.04982477	-0.08126768	-0.02599923	-0.027574142	-0.014697674	-0.013696285	0.04316686	-0.022229504	-0.062237725	-0.08730919	-0.037161455	-0.020121343	-0.026919415	0.027175521	-0.011458267	0.0074058743	-0.037455942	-0.067184806	-0.0713836	-0.009306086	0.020895725	-0.033650324	0.014361219	-0.022839652	-0.016182031	-0.032488067	0.061518643	-0.024057219	0.0623335	-0.024608966	0.0066632694	-0.005869134	0.031903714	-0.032082457	-0.05718216	-0.03559519	0.029959565	-0.027449671	-0.06065277	-0.028070727	0.041291293	0.030812189	-0.01420735	0.0006394994	0.0061774384	-0.022494998	-0.026921323	-0.051064808	-0.022060344	0.019612381	-0.029672248	-0.028946156	-0.015896358	0.051115785	0.026774906	-0.011685952	0.06740795	-0.07754387	-0.011839859	-0.05265597	-0.056270104	0.018608939	-0.0006265935	0.026229	-0.002581401	0.021953205	-0.017161215	-0.025532313	0.061391786	0.0073229023	0.03923375	0.102383986	-0.034177557	-0.043811694	0.039034154	-0.009081647	-0.003847516	-0.02260796	0.09559544	-0.06184984	0.021682994	-0.03971059	0.012491782	-0.027104266	0.055107675	-0.047093872	-0.06415894	0.011583453	-0.023925684	0.04064422	0.0019799627	-0.03713029	0.020990623	-0.026289104	-0.025979107	0.0016480436	-0.025123237	0.09357993	-0.0008479136	0.053045284	0.01502174	-0.02616448	-0.00096122257	0.0067746597	0.018709311	0.03781987	-0.0334311	-0.0677779	0.056641623	-0.015321859	-0.054152615	-0.069253564	0.023873342	-0.014014843	0.07874056	-0.05757957	0.08090582	0.017566646	-0.020370789	-0.037261646	0.0455962	0.057246894	0.03586957	0.03986542	-0.06678015	-0.025846258	-0.007529	0.07895543	-0.03670704	-0.0068467404	-0.038725697	-0.064431585	0.054288562	0.078800015	-0.015796335	-0.021755738	-0.012030017	0.008821713	-0.050007563	-0.074458666	0.019642036	-0.03939425	0.0027507588	0.00651555	-0.008914701	-0.0065468997	-0.034157895	0.061278522	0.027467132	0.009655997	-0.08387546	0.017306134	0.031620793	-0.06577427	0.0512591	-0.05964601	-0.09255633	-0.07084466	-0.0094493935	-0.0018039235	-0.013019858	-0.051892586	0.02328921	0.04312393	0.09448852	0.034680672	0.03038271	0.06932439	-0.055992648	-0.019810466	0.017464958	0.06572278	-0.044075508	-0.017612148	0.055211272	-0.014862204	0.053586487	-0.031788755	0.03608408	-0.0038848857	0.03301485	0.08109241	0.0069837226	0.009627676	-0.09380466	0.01297689	0.08780841	0.07468737	0.04868857	0.043065935	0.034963872	0.043608285	-0.0255955	0.022599617	0.009458131	0.05232882	-0.017829964	0.04403746	-0.009542099	0.043396045	-0.038048517	0.04506861	-0.10326522	-0.06276602	-0.08708379	0.084755085	0.011579448	-0.041850105	0.052557047	-0.08357823	0.01028859	-0.03665184	0.036097072	0.010686755	0.04636247	-0.030257568	-0.031842545	0.00913504	0.062288117	0.027752783	-0.052626185	-0.0014171778	0.07611509	0.028558522	0.0011880283	-0.018176887	-0.054134443	0.015317856	0.010851718	0.032799397	-0.0014026597	0.04587059	0.023286665	-0.067909434	0.021236997	-0.07529768	-0.055103317	-0.039624907	-0.060583778	0.0006482722	-0.031247512	0.02399254	0.0019653472	-0.06775587	0.0023291442	-0.023000708	0.011509905	-0.036181618	-0.06264894	-0.076973826	0.0014735946	0.032883313	-0.08147505	0.001683133	0.061660882	0.029557357	0.041104514	0.020614533	0.012920175	-0.056583032	0.02175242	0.019847922	0.07824643	-1.2461317e-05	0.045432046	0.013731589	0.0056038024	-0.060425334	0.027430896	0.016766781	-0.030049354	0.034395594	-0.0018251451	-0.027500723	-0.00053766405	-0.054409746	0.03977202	-0.037816282	0.0010752106	0.0038086544	-0.075573236	-0.02867634	-0.053936183	-0.030942336	-0.054869898	0.08500897	-0.04585921	-0.039206047	0.05194214	0.087699644	-0.0122992955	0.03120356	-0.08529939	-0.027057722	-0.06775246	0.06957481	0.08843709	-0.018028572	-0.0748511	0.040714998	-0.012475443	-0.023526693	-0.08140338	0.0372121	0.025769213	-0.034267917	-0.022310793	-0.010896513	0.019078074	0.009960229	-0.04697157	0.04467749	0.025776168	0.028973551	0.03611557	0.014505952	0.02430642	0.02302419	0.020005954	0.013907298	-0.02362887	-0.016542269	0.025748549	0.06164518	-0.003786392	-0.023361305	-0.021325069	-0.0009916653	0.054764163	0.04894261	-0.0073411483	0.024895102	
e	0.06539717	-0.04125939	0.0141317	0.019918367	-0.02621347	0.022175137	-0.01882127	0.03179493	-0.08676034	0.07202033	-0.048365884	-0.027278224	0.064008206	-0.0062231887	0.0840131	-0.03156113	-0.005761072	-0.0001980968	-0.0041824686	-0.017404005	-0.034405727	-0.012282713	0.019425936	-0.00079202064	0.020759206	-0.0720404	-0.07452744	-0.0432367	0.07723984	0.05679169	0.02152499	-0.064538166	0.009862827	0.08447219	0.020146526	0.00021631796	-0.02137884	-0.050259646	0.005289206	0.036115758	-0.03502698	-0.02438394	-0.058142457	0.05520695	0.062536195	0.028007451	-0.017538205	0.060518254	-0.033815496	-0.023557466	-0.059154518	-0.036566272	0.005020719	0.051301744	0.0582359	-0.074017555	-0.019432535	0.04834463	-0.04836434	-0.0840418	-0.005247245	-0.058901235	0.06043476	0.05662888	0.030250221	0.03787251	0.06413844	-0.050154135	-0.021726072	0.07638077	-0.025822753	0.0067710686	0.008165134	-0.05887857	0.01369014	-0.055258837	0.04753789	0.07697945	-0.07067315	0.062816314	-0.03715876	-0.08870802	-0.038812388	0.041351136	0.017365765	0.058481894	-0.08151631	-0.030142654	-0.043676145	-0.014406135	-0.057486985	-0.029053021	0.013551028	-0.016906524	-0.059012134	0.07349223	0.063737735	-0.04634912	-0.04968667	0.0019934936	-0.04850992	0.000531994	-0.05496275	0.004545997	0.024070233	0.021189395	0.032449834	-0.06013716	0.066589415	0.041631624	0.060690813	-0.00030631473	0.07190843	-0.0011378571	0.045902167	-0.011111622	0.027039248	-0.003777461	0.08147615	-0.0022172981	0.042253423	-0.06729062	-0.004678349	-0.0041970485	-0.05591393	0.07017091	-0.0018940157	0.048407584	0.017767755	0.053673487	-0.007518162	0.054150056	0.058749292	-0.07265612	0.08832853	0.004413424	0.03670602	-0.06985958	-0.038420666	-0.036770273	-0.021249937	0.07419981	0.04691946	0.06504125	0.035539713	-0.056285426	-0.03278937	0.0053312806	0.012447876	-0.031834297	-0.022742946	0.014729239	-0.008852397	-0.031432085	-0.06364482	-0.0071760206	-0.035327107	-0.042614836	0.0051299133	-0.066381216	0.037829444	0.026004072	-0.018629286	0.03357669	-0.009447581	0.035646748	0.032908857	0.0025468038	-0.008660992	-0.044483807	0.012458037	0.06635044	-0.020218454	0.016377516	-0.023663992	0.0025154667	-0.05392766	0.07877875	-0.035317592	0.037098635	0.017259067	-0.066044085	-0.003361518	-0.00930771	-0.035520196	-0.027573142	0.0065253545	-0.022524223	-0.037122976	-0.08172191	-0.04187934	-0.0031668928	-0.014289945	0.035878923	-0.03501784	0.031223463	-0.04719673	-0.067251734	-0.050729755	-0.006187237	0.0064341696	-0.00807227	0.02418875	-0.034854546	-0.042133845	-0.0071447315	0.058468487	-0.048531048	0.07183977	-0.0053588045	0.019129302	-0.016560445	0.015082486	-0.029565092	-0.06062379	-0.048149016	0.022707537	-0.032603692	-0.048098348	-0.043659154	0.04240885	0.04337304	-0.0021824867	-0.008582305	0.03348116	-0.01705575	-0.042421773	-0.053856604	-0.008653346	0.0480775	-0.04698234	-0.0294812	-0.033209153	0.032803427	0.014347308	0.011610863	0.058221083	-0.07714985	0.016158376	-0.05857832	-0.065688	-0.015050302	0.011816173	0.049925704	-0.0010869831	0.015095019	-0.0356483	-0.02558642	0.06619303	0.024880655	0.03552324	0.09632662	-0.036157813	-0.032463077	0.045877747	-0.044030152	0.00210022	0.005709203	0.086663336	-0.0568442	0.034759987	-0.056353867	0.017880555	-0.03724255	0.059943605	-0.043801706	-0.06864381	0.03398994	-0.03998499	0.03923134	-0.0016315288	-0.031924125	0.015337687	-0.039258324	-0.055865504	0.017300116	-0.0077381204	0.08388899	0.0032892914	0.04386543	0.028701643	-0.021324474	0.012000078	0.03538206	0.04285703	-0.0040066657	-0.024943106	-0.05112835	0.06447956	0.011491362	-0.05319156	-0.07064765	0.023602903	-0.0082714865	0.06401369	-0.06357446	0.07625285	-0.001988763	-0.033264343	-0.04775761	0.028817512	0.0406387	0.03570375	0.0487051	-0.061788425	-0.011981639	-0.03922114	0.07402226	-0.029685128	0.023665601	-0.05155425	-0.057593662	0.037525948	0.07156707	-0.04893481	-0.020348705	-0.017905008	-0.02772114	-0.04656692	-0.06493311	0.02737127	-0.03279298	-0.010128917	0.022260334	-0.026246974	-0.023730671	-0.0080704605	0.053979002	-0.0010450226	-0.015908761	-0.07529582	0.043314736	0.02917034	-0.07075284	0.048783544	-0.04787197	-0.09255656	-0.06599927	-0.017584449	-0.030098608	-0.01081278	-0.0391471	0.02037854	0.013747653	0.09067957	0.03491567	0.026980208	0.07015492	-0.03234767	-0.03096238	0.024648821	0.063744456	-0.03985959	-0.023298033	0.062455453	-0.011117211	0.05252109	-0.04022473	0.034669533	-0.001600603	0.039148163	0.07198423	0.04171885	0.0038742993	-0.0769341	0.016640056	0.0796898	0.058244765	0.0254536	0.039585706	0.010836558	0.021866057	-0.045567438	0.019845547	0.025230648	0.026670717	0.009045529	0.024676401	-0.02987613	0.032759473	-0.032625403	0.040521447	-0.09185926	-0.056587774	-0.07365408	0.07494378	-0.012260389	-0.04670768	0.052723054	-0.07255702	-0.028319322	-0.038382582	0.04219116	0.039173387	0.061754324	-0.036761023	-0.031905133	-0.0010218166	0.07396777	0.023448035	-0.050268237	-0.017706325	0.09293925	0.039300963	-0.021372292	-7.388654e-05	-0.056361135	-0.025856545	0.057657402	0.03616179	0.017188033	0.06746535	0.02208714	-0.053190675	0.022074046	-0.08028285	-0.05739147	-0.050751194	-0.06125159	-0.030157447	-0.045178793	0.028046243	-0.028256597	-0.06567429	0.014549276	-0.034833822	0.026893143	-0.059198543	-0.051228356	-0.0746565	-0.017606324	0.04664278	-0.08093968	0.022580966	0.073061235	0.024321415	0.063786134	0.020219509	-0.0060707293	-0.047523286	0.049057685	-0.014354558	0.07939483	-0.0066960272	0.030508908	-0.014294819	0.013462747	-0.071474515	0.04177336	0.035534363	-0.047997925	-0.002462834	-0.021054003	-0.017209321	-0.033235338	-0.044427626	0.02360062	-0.045088425	0.014763907	0.015711768	-0.060313087	-0.046539463	-0.029954398	-0.031575374	-0.05703175	0.08398553	-0.042102218	-0.052965827	0.04344638	0.078637995	-0.007666187	0.026246835	-0.08310957	-0.032431364	-0.06580236	0.066314794	0.08469579	-0.010112185	-0.06079747	0.039060567	-0.0018690568	-0.029473228	-0.09281243	0.04905889	0.027284844	-0.026992112	-0.0020215833	-0.0072080884	0.004041603	0.003958734	-0.054688	0.04066031	0.012327047	0.051738456	0.04210303	0.0022581134	0.018601386	0.031912427	0.01722416	0.036641393	-0.014412887	-0.029997611	0.05617579	0.07604573	0.0054786694	-0.025415123	0.0176163	0.0132441	0.03863033	0.06832979	-0.010695793	0.051999174	
f	0.06302899	-0.06734571	0.027035747	0.01806554	-0.017666489	0.008284727	0.0045646382	0.057625193	-0.0812736	0.071080044	-0.039093547	-0.012117861	0.017100433	-0.050518475	0.06370406	0.004632739	0.010587235	0.0023075535	0.0073166443	-0.028691275	-0.0031843449	0.013594231	0.028173475	0.0401457	0.039435513	-0.080595404	-0.063143484	-0.007545577	0.03513157	0.036664285	0.051895775	-0.0865445	-0.019851597	0.094084054	0.0271343	0.044211116	0.052447923	-0.035585906	0.0049887896	0.06995671	-0.058435775	-0.030553425	-0.07344395	-0.0025190623	0.046776198	0.05042816	-0.0130561255	0.052053336	0.033922575	-0.03158029	-0.04026544	-0.029936768	-0.035092555	0.045969456	0.048713043	-0.05383688	-0.05193851	0.02913036	0.014755957	-0.08375813	-0.033747192	-0.02971554	0.051898696	0.03755234	0.02100587	-0.019836083	0.020542698	-0.016807707	-0.06650743	0.08061425	-0.015549449	0.03994936	0.011890367	-0.05806235	-0.012585778	-0.044111922	0.029915104	0.05694701	-0.07248561	0.048888624	-0.06368156	-0.08026519	-0.032272514	0.018732905	0.05135055	0.065759145	-0.06051878	0.034364413	-0.0017192718	-0.006096238	-0.02796993	0.009680179	0.044687342	-0.028459944	-0.090668425	0.044105943	0.030766645	0.013519118	-0.04222282	0.06070981	-0.056147784	-0.017734557	-0.017633686	-0.0061526694	0.0041101207	0.05244741	0.036486946	-0.06440327	0.03825192	0.033300716	0.028420249	-0.0053641624	0.067017235	0.020819224	0.025723763	2.0476535e-05	-0.012649458	0.010156708	0.08470791	0.010552186	0.04572109	-0.058754675	-0.01398048	-0.05342206	-0.028877426	0.064182475	0.040463306	0.06637176	0.041200727	-0.015501118	0.018657066	0.082359925	0.09837271	-0.07143946	0.094712935	0.00077291107	0.061557177	-0.059443586	0.001596063	-0.0070937825	0.0074513806	0.03126202	0.0639408	0.011764397	0.06890156	-0.060592767	-0.045686517	-0.07445473	-0.01412374	-0.055616144	-0.026557753	-0.0025574637	0.023366293	-0.03536773	-0.07748884	0.036818855	-0.03732185	-0.053879555	-0.03137651	-0.04602802	0.046097457	0.022468207	-0.033878755	0.023470204	-0.012048908	0.029555067	0.023895618	-0.048453983	0.00043532185	-0.054636303	-0.022292923	0.04907978	0.0153713245	0.035997164	-0.05014529	0.040654853	-0.088200256	0.09040708	-0.03574293	0.01695896	0.062162463	-0.07988396	-0.052389633	-0.016548645	-0.03406	-0.02682818	0.046279915	0.002125937	-0.068266876	-0.06534265	-0.03736799	-0.045140017	0.012979449	0.06747925	-0.040350374	0.0033506567	-0.032050166	-0.062914886	-0.045606356	-0.0077189733	0.007463124	-0.037228294	-0.01407642	-0.008542135	-0.051040754	0.043776833	0.06303155	-0.03551689	0.08438251	-0.049128186	-0.009746812	-0.013946781	-0.03517768	-0.03477958	-0.048778415	-0.012461856	0.018715078	-0.037047863	-0.0314625	-0.02149881	0.03444358	0.023363898	-0.041848898	0.00034008248	0.02680153	-0.026947869	-0.014919121	-0.04223102	-0.0018381381	0.028043404	-0.007469359	-0.0067126756	-0.04005009	0.039408267	-0.050707158	-0.004698137	0.030469326	-0.096952215	0.06898218	-0.04757413	0.0036117632	-0.025662454	0.028025337	-0.018982261	0.00216503	0.038010105	-0.033315625	-0.015863555	0.056481466	-0.0072323075	0.001380843	0.086977296	-0.049104482	-0.0019523683	0.046816174	0.03701856	0.01239624	-0.021238694	0.09374764	-0.04432356	0.018426286	-0.026256127	0.04108993	-0.03676106	0.02518847	-0.025246618	-0.026193967	0.031705756	-0.00051671575	-0.017393256	0.0044603953	-0.049947508	0.008813265	-0.07601147	-0.023886811	0.031191166	0.028280772	0.066652305	-0.071504086	0.047346182	-0.026756102	-0.009458325	0.0160512	0.003531424	0.009327074	0.005508056	-0.009539004	-0.066887185	0.032331806	0.020842059	-0.04758585	-0.07092594	-0.0012923931	-0.004582835	0.042954862	-0.07447253	0.054503877	0.002178488	-0.04139183	-0.013450483	0.04699922	0.051975716	0.019647056	0.027604891	-0.047006	-0.046024892	0.032556903	0.034257043	0.004300955	0.0037432415	-0.030224359	-0.0170993	0.02381116	0.058771335	-0.07812219	-0.048129227	0.018296491	-0.031854317	-0.029939726	-0.02181782	0.037171535	0.015202468	0.03432158	0.0075315353	-0.002261244	-0.05326097	0.020098612	0.04989517	0.0057894723	0.009835574	-0.059992358	0.060106874	0.017130338	-0.033259735	0.092833824	-0.042308424	-0.07293988	-0.049527925	0.030249557	-0.03816935	-0.0033123854	-0.014016787	0.035111673	-0.0021367176	0.08437837	-0.011666498	0.038852323	0.011042092	0.01901243	-0.03702092	0.07618315	0.06268827	-0.03398066	-0.034104038	0.060139198	-0.014265189	0.028050685	0.0048978794	0.060393967	-0.0041453056	0.043518018	0.06557863	-0.017713867	0.062606946	-0.063290656	-0.009534463	0.06935411	0.06175479	0.011915833	0.05206599	0.04755592	0.0284393	-0.011216197	0.03378951	0.019437673	0.06439829	0.007069421	0.06516654	-0.030597497	0.073887154	-0.043652754	0.05880726	-0.09275956	-0.00448756	-0.07466025	0.070691675	-0.0153332595	-0.028797347	0.03640966	-0.07569006	-0.016787758	-0.019067386	-0.034807283	0.039098836	0.029329577	0.0043278746	-0.0370666	0.036428127	0.09259094	0.03968343	-0.047185674	-0.040233903	0.096541956	0.036051575	0.02009249	-0.03211118	-0.041998778	-0.03286125	0.05327136	0.07806191	0.019191757	0.04077744	0.01696264	-0.05562648	-0.007101769	-0.014928299	-0.015160823	0.0068577263	-0.07280632	0.05285322	-0.065175675	0.007900305	-0.039783824	-0.028098818	-0.0009622965	0.0049860952	0.049728565	-0.06460753	-0.06462886	-0.06843379	-0.047840808	-0.058102947	-0.081736125	0.04238057	0.039414644	0.032778	0.04585743	0.02196722	0.0054904083	-0.072661065	-0.022543566	0.061559994	0.07794933	0.026840484	0.029292641	0.03013337	0.017534982	-0.082059786	0.023143126	0.016513819	-0.043218557	0.03181304	-0.05742204	-0.0061090263	-0.020982077	0.05186724	0.05685612	-0.037738137	-0.045523435	0.047214996	-0.065244086	-0.036154274	-0.035213105	-0.058219187	-0.08079446	0.061996356	-0.042622484	-0.020191832	0.085690536	0.081173174	-0.018360646	-0.00086348027	-0.08316272	-0.057770062	-0.08226999	0.0585828	0.0834484	-0.044051684	-0.05566837	0.053372163	0.025496569	0.04209542	-0.077726156	0.04430661	0.001650902	0.006689378	-0.019187057	-0.013393401	0.0019640375	-0.02756159	-0.022786733	0.018527519	0.017217606	0.0568867	0.03252799	0.009648539	0.022199214	0.03450216	0.029180156	0.00671407	0.0013625006	-0.029859671	0.06721635	-0.016654473	-0.032996062	-0.025418343	0.036852203	0.011836878	0.024074022	0.062467877	0.04007436	0.059594586	
g	0.053346768	-0.03349448	0.0047786497	0.017364556	-0.022111313	-0.006177544	-0.027011054	0.046494313	-0.09284856	0.063275	-0.0523294	-0.034777977	0.05888995	-0.004910963	0.08321984	0.0040423097	-0.025398834	-0.007901472	0.019097285	-0.02536172	-0.051533747	-0.021199217	-0.0026321064	0.0053493455	0.040180355	-0.08679149	-0.07737753	-0.043113902	0.06327179	0.066444725	0.018678805	-0.063502	0.017165897	0.08372991	0.017116558	-0.0032578234	-0.006698365	-0.047632128	0.011909827	0.060863294	-0.039850667	-0.0066517433	-0.064502224	0.05947818	0.058474984	0.04545396	-0.02351615	0.06265916	-0.010632368	-0.016186034	-0.025517812	-0.048095033	0.016622886	0.033719227	0.039009288	-0.07807167	-0.036563996	0.024098398	-0.026077088	-0.09225221	-0.026186734	-0.053992204	0.048857074	0.052991927	0.03874753	0.02241171	0.03930212	-0.05426916	-0.055021826	0.07534992	-0.026617944	0.018724568	-0.015999295	-0.061295733	0.0004096396	-0.064082935	0.04070502	0.07051738	-0.07290951	0.04948511	-0.041120574	-0.09201856	-0.044366237	0.038997803	0.029321784	0.074361175	-0.08265539	-0.020274227	-0.048358	-0.025633253	-0.038760256	-0.005405161	0.021029677	-0.01772192	-0.058757827	0.07805748	0.047708247	-0.033111624	-0.051211845	-0.008254727	-0.04943334	-0.024638437	-0.057889853	0.0036965956	0.030819185	0.011086344	0.03656867	-0.06322759	0.062015817	0.03920916	0.066242024	-0.0004962036	0.06867735	-0.020150144	0.031654328	-0.015297081	-0.0072688507	0.012480771	0.07788909	0.0050449986	0.03019616	-0.034511343	-0.014816331	-0.031209128	-0.044807326	0.059987813	0.021410117	0.0559045	0.04040635	0.043547384	-0.012889225	0.048627295	0.07088815	-0.07659412	0.08945144	-0.004857787	0.05631625	-0.0759203	-0.030954378	0.018930087	-0.008482924	0.058809604	0.056918427	0.06282251	0.06721029	-0.057708465	-0.027657034	-0.04528663	-0.010239729	-0.03847894	-0.019888774	0.011900195	-0.0022228449	-0.033657745	-0.08429256	-0.0013771172	-0.02672563	-0.033843894	-0.023176301	-0.061878223	0.039979152	0.02528205	-0.013966978	0.010626163	-0.032535914	0.015815904	0.050172802	0.0073713255	-0.018768879	-0.047795027	0.020126771	0.04613205	-0.013176533	0.018743146	-0.03667375	0.031525977	-0.053229064	0.09289097	-0.05184456	0.018587261	0.029789684	-0.069131084	-0.021731287	-0.022176124	-0.025502665	-0.0007448857	0.014407816	-0.012635105	-0.057149753	-0.0872333	-0.0454031	-0.032785747	-0.0050370647	0.05233863	-0.049740482	0.035493627	-0.038149387	-0.06179514	-0.056018397	-0.00060622965	0.0017025141	-0.014835634	0.008887285	-0.008488382	-0.058858015	0.0002339205	0.06296351	-0.043461528	0.07851788	-0.019130994	0.027063945	-0.0050221495	0.016934812	-0.008428943	-0.058376715	-0.036999628	0.009197868	-0.030304223	-0.05378117	-0.026004877	0.058256257	0.036780927	-0.012161246	-0.022243572	0.031188263	-0.009836775	-0.008662344	-0.052005447	-0.026807511	0.055418473	-0.02466611	-0.021329882	-0.032027144	0.040799163	-0.0017935266	0.022012284	0.06518059	-0.083387665	0.02980701	-0.062073577	-0.050423667	-0.021119282	0.013835651	0.028103929	0.02700308	0.024191128	-0.035932753	-0.029710993	0.04590409	0.021309385	0.015721828	0.10113722	-0.028485298	-0.04371706	0.037858896	-0.027939862	0.024386646	0.02231502	0.09407058	-0.05305244	0.035911802	-0.06059739	0.026325723	-0.031080093	0.060234785	-0.04169386	-0.068321355	0.029401267	-0.047593657	0.050010398	-0.0031503483	-0.05233525	0.023546763	-0.06271501	-0.042818088	0.010452458	-0.019568646	0.08770107	-0.023099134	0.05775668	0.00080078095	-0.0060342764	0.011424776	0.0032897808	0.03330462	0.008627806	-0.03302333	-0.058905326	0.058848277	0.025614971	-0.03613173	-0.0702346	0.005593005	-0.02673741	0.05430745	-0.07531947	0.07285595	-0.0013839791	-0.03133152	-0.040175397	0.022416355	0.041498587	0.03873877	0.047100037	-0.049914706	-0.016305543	-0.023657344	0.06835847	-0.026451781	0.013317407	-0.03575705	-0.05347318	0.027140249	0.079032935	-0.061899435	-0.02583471	0.0137642985	-0.0037226917	-0.04813826	-0.06358953	0.03245378	-0.029898988	0.0061288723	0.009882412	-0.018091196	-0.016086154	-0.01044101	0.0395337	0.021505002	-0.018137436	-0.060559265	0.05408416	0.036592007	-0.050308544	0.06676969	-0.052999057	-0.09607417	-0.05622412	0.010860537	-0.0057085417	0.008467406	-0.034705	0.04379994	0.028503057	0.09788039	0.027313123	0.015617804	0.039745506	-0.013732295	-0.006937958	0.036157575	0.07091592	-0.048116915	-0.03544902	0.0496487	-0.046674237	0.04241886	-0.02326932	0.039111044	-0.008734207	0.036890253	0.07626569	-0.0072815805	0.03467938	-0.07625251	0.0057736505	0.09016785	0.082218945	0.025658479	0.04244449	0.0047463113	0.038002696	-0.0139173325	0.010019256	0.014209161	0.061964195	-0.0014172671	0.031406492	-0.009280425	0.065128624	-0.026395539	0.053367127	-0.08506949	-0.032141455	-0.08705785	0.08014706	0.007994075	-0.032173656	0.05387704	-0.08347616	-0.0212101	-0.0407062	0.028110996	0.042927515	0.04992641	-0.03177624	-0.03317686	0.01486958	0.09392029	-0.009781931	-0.044581905	-0.03845935	0.097558096	0.054018583	0.0030548095	-0.010595775	-0.053199086	-0.0043663336	0.029064022	0.014585218	0.003505954	0.07291775	0.023510452	-0.04225502	0.007272595	-0.08268715	-0.033359885	-0.049170777	-0.056727633	-0.024733538	-0.06230011	-0.006370531	-0.025555529	-0.052499205	-0.0010758934	0.0034467145	0.027327443	-0.05586216	-0.069457226	-0.052919284	-0.021307647	0.03184491	-0.08853018	0.03125403	0.07091489	0.021736382	0.06231626	0.021928752	0.012002071	-0.048587013	0.0039889556	0.0048398576	0.06766842	0.0010478676	0.029565692	-0.005966301	0.031274743	-0.05825231	0.0367467	0.028349465	-0.043472484	0.016104419	-0.022934496	-0.034154497	-0.040598545	-0.045718353	0.048076272	-0.025758268	0.0056218426	0.034317724	-0.051955566	-0.030101353	-0.0409841	-0.04596512	-0.04479886	0.079636544	-0.03503185	-0.03071259	0.055613987	0.08640446	-0.01949098	0.037103593	-0.081167236	-0.038821667	-0.07204384	0.06761121	0.09109146	-0.04539492	-0.06668379	0.043429546	0.0108326115	-0.015885899	-0.08411531	0.038342867	0.012109912	-0.027637612	0.0031952222	-0.008460665	0.03580195	-0.005373525	-0.044262495	0.0208515	0.009021415	0.061968856	0.040691197	0.006556647	0.021923546	0.010225385	0.03695309	0.027574377	-0.002741928	-0.020849992	0.06259734	0.03573558	-0.03543973	-0.03211594	0.038721044	0.028917657	0.028439367	0.064010166	-0.002961472	0.04967676	
h	0.04830821	-0.034149867	-0.010204091	0.010215508	-0.02097238	0.0027537048	-0.019333653	0.024775539	-0.09666707	0.06766735	-0.06605736	-0.034655817	0.06326596	-0.022353126	0.0850048	-0.0027666476	-0.012499223	-0.019320918	0.012985417	-0.024606116	-0.04851879	-0.012074653	0.0045593176	0.0004410108	0.037656788	-0.07126306	-0.07294791	-0.061742708	0.071245976	0.048317924	0.024702119	-0.046726342	0.024685431	0.08635928	0.0067197676	-0.025010908	-0.012809781	-0.05054478	0.014797278	0.049291026	-0.06269121	0.007059244	-0.067015104	0.06158383	0.04917005	0.047264546	-0.01758776	0.05240298	0.005462368	-0.030825207	-0.03670998	-0.017760191	0.017730918	0.03748447	0.038068786	-0.07992624	-0.03327033	0.01651833	-0.05676524	-0.09305128	-0.029327884	-0.045012582	0.06532508	0.04342647	0.011689679	0.035410598	0.064573824	-0.043653537	-0.035674755	0.070222706	-0.017683955	-0.015593905	-0.0056034746	-0.06244973	0.0038121548	-0.06273419	0.021784505	0.067557715	-0.067117825	0.040865242	-0.06583343	-0.08871235	-0.054955512	0.029677916	0.027658012	0.07006418	-0.08433947	-0.0363213	-0.04682967	-0.028732337	-0.04048115	-0.021795323	0.00964187	-0.02939629	-0.06580795	0.08781612	0.05877421	-0.038096555	-0.023837259	-0.012146349	-0.054672375	-0.012953844	-0.048835147	-0.0037323406	0.024449227	-0.009992171	0.031243842	-0.049437653	0.061478544	0.027683571	0.05872355	0.002003464	0.07821163	0.012553605	0.025883583	0.009588689	-0.006071781	0.005070822	0.08972625	-0.018819906	0.040598594	-0.02130082	-0.02298031	-0.0074469694	-0.037765358	0.06277756	-0.0013573952	0.041179653	0.03217117	0.031427123	-0.021648228	0.056766078	0.04341496	-0.080511	0.08227709	-0.011451627	0.024384493	-0.07783808	-0.034338195	0.00084258703	-0.022506628	0.05581343	0.03758146	0.06878307	0.051996116	-0.04768303	-0.004432874	-0.042703032	0.0010279795	-0.03438533	-0.031916067	-0.0012308733	-0.0003256591	-0.029673379	-0.07610584	-0.007432856	-0.019503905	-0.04218411	-0.009701265	-0.057202972	0.04597752	0.023336718	-0.018125024	0.010340883	-0.01188378	0.0071556354	0.051512737	0.00828602	-0.020742133	-0.059759308	0.02352877	0.07203667	-0.008205483	-0.010146641	-0.022123845	0.012356191	-0.03908837	0.08516379	-0.06271475	0.026955651	0.030345142	-0.062725246	-0.004008825	-0.0042124907	-0.06465902	-0.014225605	0.0056278	-0.027722001	-0.05088315	-0.0881498	-0.052108925	-0.031823706	-0.01680037	0.0442805	-0.026367947	0.034759846	-0.043347787	-0.057799224	-0.050386075	-0.018265588	-0.0026524775	-0.008944377	0.02026832	-0.014602274	-0.063244954	-0.016863167	0.055719964	-0.06435748	0.07505036	-0.0036610032	0.011731579	-0.0028192585	-0.0015146562	-0.0018297008	-0.05830376	-0.0353781	0.003322594	-0.050857283	-0.061234593	-0.026447667	0.06057132	0.029509392	-0.0070691407	-0.03275699	0.028778784	-0.010992595	-0.020948196	-0.050974805	-0.028728472	0.05208256	-0.042425204	-0.027908614	-0.040496003	0.042721633	0.0047094245	0.032436155	0.064612724	-0.09107608	0.024950273	-0.061113685	-0.03873052	-0.03206155	0.024066688	0.04305588	0.02379338	0.014821772	-0.042477906	-0.02635245	0.07704646	0.020902572	0.02694208	0.10360053	-0.005690456	-0.04392534	0.059990115	-0.033928562	0.030091565	0.017420186	0.097874634	-0.056412812	0.031586386	-0.06898102	0.024266945	-0.03705644	0.05932249	-0.057854857	-0.07392972	0.018806033	-0.04686545	0.045779552	-0.020784076	-0.0366274	0.019534942	-0.041718196	-0.035398632	0.012963435	-0.031872883	0.09427743	-0.014443267	0.05713783	-0.005886293	-0.0014135274	0.00494516	0.0033504956	0.036368374	0.004032025	-0.040675476	-0.06538159	0.06210157	0.032579467	-0.03232849	-0.062348306	0.021573622	-0.009254999	0.046135087	-0.07142751	0.068287864	0.0039848303	-0.031098934	-0.045577355	0.00804263	0.033456743	0.029911963	0.04948556	-0.058728248	-0.027371882	-0.04060922	0.06687341	-0.028803933	0.04105094	-0.015986608	-0.05358735	0.032843012	0.078555025	-0.0833536	-0.03949319	0.010071181	-0.012092688	-0.045486335	-0.056824412	0.020773973	-0.038437426	-0.008296903	-0.0038463695	-0.018037286	-0.017457401	-0.0035326271	0.015162685	0.0008200009	-0.014232837	-0.07258144	0.054386526	0.027206542	-0.054858685	0.05740869	-0.053794898	-0.10036916	-0.045902558	0.02341613	-0.015428664	0.003113217	-0.02963272	0.03116833	0.028210677	0.099443346	0.02619095	0.009579986	0.03902477	-0.013670215	-0.029894952	0.023954153	0.07189833	-0.036519833	-0.029564338	0.039070353	-0.043497656	0.04185423	-0.042573724	0.05046277	-0.008836984	0.038128432	0.0737239	0.003639354	0.022473296	-0.07912012	-0.0033815564	0.09144139	0.06446423	0.01856209	0.02859175	0.031345997	0.021061065	-0.038920615	0.011098601	0.021108484	0.027925778	-0.013040415	0.027768645	-0.02346403	0.040421918	-0.037439857	0.043766163	-0.087227106	-0.031104261	-0.087647155	0.076675944	-0.00094249414	-0.03442568	0.047737926	-0.082838915	-0.018282317	-0.036396153	0.034649827	0.0427644	0.053567655	-0.029165857	-0.005764162	-0.0041322457	0.093994476	-0.002830727	-0.04614087	-0.019093946	0.10299614	0.039771587	-0.00031834398	-0.008628996	-0.040830217	-0.013257163	0.03246549	0.035102937	-0.0011805958	0.080853306	0.033007737	-0.036672145	0.0038916126	-0.08103356	-0.047818027	-0.04771091	-0.06723392	-0.048545793	-0.05772851	0.018364312	-0.017630085	-0.044242885	0.008587252	-0.02605177	0.013191659	-0.039729938	-0.04592083	-0.06837683	-0.03354453	0.052449614	-0.09029974	0.019495137	0.066137545	0.026191497	0.05599154	0.019588796	0.0030748276	-0.032055743	0.010045163	-0.01100505	0.07279344	0.005969284	0.0067074653	-0.0062894896	0.0028593387	-0.056884706	0.04147856	0.039851174	-0.04417662	-0.0032368698	-0.02876847	-0.037656292	-0.03783159	-0.051680587	0.04186483	-0.008254405	0.017827043	0.04648815	-0.06139695	-0.02665838	-0.03548969	-0.045506805	-0.062047806	0.08426785	-0.016913498	-0.04312693	0.044311497	0.085287265	-0.01586008	0.027023962	-0.08012435	-0.024176711	-0.079237126	0.067070045	0.0945613	-0.033254854	-0.047261387	0.04687286	-0.007601186	-0.0077097025	-0.093846865	0.04065454	0.037055008	-0.027607303	0.019829065	-0.013667346	0.024034804	0.02946315	-0.032335263	0.028894082	0.00095521583	0.07152063	0.041307807	0.017799024	0.012438054	0.009612236	0.026290251	0.044038754	-0.020175098	-0.03075284	0.07695715	0.05052709	-0.011437188	-0.035820868	0.036987748	0.042059995	0.040598664	0.07079088	-0.0071356385	0.053157683	
i	0.062146753	-0.05956797	-0.008135339	-0.00086413126	-0.016911888	-0.011696681	-0.008523739	-0.0030678106	-0.08747604	0.07556254	-0.0547705	-0.04253349	0.06387734	-0.014356045	0.08794893	-0.01038473	-0.013721428	0.022838553	0.033738468	-0.044296682	-0.032025155	0.008615428	0.032705683	0.0010400586	-0.0107727535	-0.06523586	-0.07383188	-0.055521302	0.08338734	0.08078863	0.006365364	-0.06578659	0.025050383	0.081024796	-0.032873593	0.004366259	-0.027094806	-0.023522994	0.026629023	0.036379714	-0.052780043	0.027755255	-0.029984957	0.051339164	0.07165454	0.061641384	-0.0023952085	0.065403566	-0.010698179	-0.031086609	-0.054963753	-0.007450789	0.036698606	0.025457608	0.050806973	-0.0545656	0.029933833	0.033052776	0.0141060995	-0.08247717	0.00042749237	-0.07383992	0.05196611	0.052319374	0.014254563	0.010626337	0.0795846	-0.059038963	-0.03767563	0.06604254	-0.007901659	0.011910963	0.020467248	-0.056825224	0.011537982	-0.040975332	0.06773898	0.059032153	-0.07489468	0.049925312	-0.0113728745	-0.08097637	-0.045765582	0.055390082	0.016032029	0.075759545	-0.05853092	-0.05292508	-0.041778956	-0.041043043	-0.021139344	-0.032467138	-0.033959944	-0.01170392	-0.055354703	0.07525567	0.050901715	-0.057790756	-0.058347482	-0.000663083	-0.032545388	-0.038845345	-0.06511219	0.011192159	0.021031551	0.011753772	0.010003079	-0.0679563	0.07055936	0.035273653	0.05169412	-0.010257913	0.07055965	0.0492776	0.023766994	0.004383493	0.031219387	0.024107711	0.07567416	-0.027010554	0.064132236	-0.07908823	-0.0094169695	-0.012546253	-0.028298836	0.050880067	-0.007499477	0.03604977	0.03690966	0.05586339	0.024247875	0.024346806	0.041443445	-0.08331436	0.089804865	0.01136801	0.041629735	-0.045687195	-0.03995347	-0.012646993	-0.020236332	0.06519426	0.06838233	0.06291236	0.056000773	-0.035106856	-0.056003492	-0.007376109	-0.028166302	-0.012231356	-0.0050521283	-0.01231634	0.009171343	-0.018768221	-0.07410733	0.02270204	-0.035593033	-0.04190482	0.00041389593	-0.07061677	0.0439242	0.0037647923	-0.027740512	0.014576454	-0.031482637	0.049452506	0.01751404	0.0033655511	-0.04475473	-0.040600896	0.001035121	0.046372436	-0.01913181	0.037053414	-0.024679694	0.014017866	-0.054773044	0.07816433	-0.04346481	0.023403682	0.012974095	-0.07179376	0.01555534	0.013073674	0.036219385	-0.02838185	0.042836487	-0.052578133	-0.053444605	-0.08263568	-0.03917095	-0.03210794	0.034358166	0.047552727	-0.0355682	0.04032388	-0.050245445	-0.05127783	-0.06810444	0.013159799	0.030695664	0.012116986	0.043983422	-0.033104796	-0.043395817	0.0002848569	0.054138314	-0.022686217	0.06827307	0.0028965326	0.010556293	-0.015950238	0.053977337	-0.025143545	-0.07202472	-0.049121454	0.0068052965	-0.021328816	-0.037613768	-0.061179373	0.05577388	-0.0042616217	0.021886311	-0.012960152	0.0699116	0.019710947	-0.03675913	-0.06477257	-0.033058885	0.043471385	-0.029215017	-0.053351726	-0.015869213	0.028377417	-0.014688698	0.0008329969	0.041850287	-0.043495446	0.001074793	-0.059066504	-0.04143003	-0.028332168	-0.013767093	0.030720495	-0.05130118	0.029919328	-0.03650416	-0.025852824	0.022814177	-0.019257931	0.0069680554	0.09619313	-0.027103579	-0.04568677	0.04190816	-0.026962746	0.0012442846	0.015599618	0.086240366	-0.042067457	0.048016228	-0.02547861	-0.016440352	-0.073460415	0.041987907	-0.043651376	-0.06787345	0.036857218	-0.04575982	0.049809553	0.0033023453	-0.06298369	0.009537615	-0.036168333	-0.021391526	-0.02183202	-0.041838806	0.08905136	0.0037672443	0.022798778	0.03804439	-0.038048808	-0.014103466	0.04448238	0.019160068	-0.01606195	-0.037289005	-0.051392376	0.04749313	-0.005545462	-0.022750324	-0.08111129	-0.011260755	-0.040783472	0.07582391	-0.060435586	0.062807836	0.019812664	-0.015597227	-0.06318908	0.054160476	0.010265697	0.055836778	0.05588488	-0.019565288	-0.06594694	0.009682841	0.04903352	-0.044879224	0.034174185	-0.045372777	-0.05479702	0.0652376	0.07400523	-0.037951246	-0.01609492	0.03625331	0.0113171125	-0.03339704	-0.0616873	0.036678687	-0.02912029	-0.024215506	0.041366447	-0.0048390767	-0.008970879	0.0131223425	0.047253832	0.012643406	-0.05866105	-0.06707495	0.048396178	0.0056286133	-0.067739315	0.07720711	-0.029131195	-0.08658157	-0.063978255	0.0005491281	-0.015105855	0.011247356	-0.04624076	0.052975375	0.028658552	0.08512607	0.00092153414	0.02095031	0.07427676	-0.047859546	0.002161708	0.063582525	0.075332634	-0.046972107	-0.004445159	0.0050410796	-0.020304194	0.031469237	-0.053950377	0.0251552	0.025382278	0.031494644	0.07452581	0.024971604	-0.0045379056	-0.07758951	-0.025959933	0.08245148	0.032206506	0.035592627	0.020571264	0.026003478	0.037023965	-0.06575676	0.018900638	-0.0071862726	0.04894272	-0.007539148	0.009388161	-0.03580745	0.063363455	0.009063346	0.0072306865	-0.08313942	-0.06832144	-0.08346266	0.08479749	-0.009020424	-0.02286222	0.054522835	-0.07820436	-0.048700087	-0.039775424	0.054687306	0.0633247	0.05233272	-0.00046830098	-0.024632828	0.020490387	0.074380994	-0.021879787	-0.07231758	-0.0533718	0.095915556	0.03939098	-0.0010421507	-0.023789873	-0.055720624	0.007261367	0.05594102	-0.014803265	-0.019194461	0.047310904	0.026629256	-0.030469233	-0.0056067524	-0.07968294	-0.051642172	-0.038746275	-0.05805299	-0.027808763	-0.06670075	-0.002387106	-0.028035512	-0.07059028	0.0036610505	-0.014773313	0.045442175	-0.007695533	-0.06582682	-0.06461889	-0.02137977	0.053610574	-0.080988616	0.0179194	0.040216934	0.0049458607	0.044954855	0.04088331	-0.026090402	-0.050897837	0.05525795	-0.01615765	0.08159913	-0.035838977	0.012874597	-0.03353784	-0.011575792	-0.063774034	0.009984964	0.029135663	-0.051098634	0.016332641	-0.0066059707	-0.037194453	-0.03854525	-0.03486954	0.04591441	-0.019700833	-0.037998814	0.0337615	-0.018237194	-0.019675821	-0.05912656	-0.016018182	-0.04045896	0.07378869	-0.005330973	-0.03027069	0.025762348	0.077355005	0.029166477	0.016513184	-0.094783	-0.019237561	-0.043190517	0.066479884	0.08676394	-0.033325896	-0.03926027	0.06824062	0.00892837	-0.035655823	-0.079021506	0.045749318	0.039354768	-0.017663466	0.04161875	-0.0013070545	0.035048563	0.011676103	-0.04299327	0.044011354	0.026002733	0.055292085	0.03437687	-0.013306854	0.044503015	0.037561603	0.023239214	-0.000627883	0.010356228	-0.03530761	-0.006575428	0.052541547	0.007880628	0.014681198	-0.0014683213	0.0056142197	0.02588513	0.04927373	0.01613287	0.016038673	
j	0.046637617	-0.026151605	0.0027074954	0.024912044	-0.027626107	0.007202187	-0.022728404	0.031046288	-0.09275036	0.07418437	-0.041917507	-0.036021624	0.057995297	-0.0047144094	0.08598984	0.0034596962	-0.028543748	0.005393085	-0.0046417257	-0.014188051	-0.037771575	-0.015762182	0.015652288	-0.008401476	0.052278444	-0.082765006	-0.075445876	-0.052199	0.06258278	0.06720364	0.015194469	-0.04858269	0.019457497	0.083578154	0.0148796365	-0.008796656	-0.01464534	-0.06044878	0.012404281	0.044220615	-0.05764374	0.011785239	-0.06511301	0.0687551	0.060644433	0.046323583	-0.019883549	0.06549557	-0.040102288	-0.006520234	-0.03137747	-0.056626946	0.020436779	0.040117793	0.03865727	-0.08577012	-0.023398208	0.02689811	-0.052638065	-0.09294854	-0.017518077	-0.05106338	0.055883996	0.05058688	0.031029006	0.039922126	0.050720207	-0.052621555	-0.03695042	0.07856042	-0.0058135893	0.0017438148	-0.011659486	-0.056211878	-0.01653494	-0.05201112	0.038380902	0.07123407	-0.059519444	0.04530326	-0.03704131	-0.0991446	-0.047955014	0.04316513	0.012549233	0.05807253	-0.09041713	-0.034556273	-0.043718774	-0.026905594	-0.044409346	-0.02156925	0.004854271	-0.012332783	-0.05781697	0.08530189	0.050445292	-0.046417415	-0.052722286	-0.0026172488	-0.05039607	-0.02637676	-0.06942808	0.0060490174	0.026020631	0.024828952	0.052809127	-0.06765533	0.061507255	0.022441162	0.06765714	-0.0011453686	0.074841075	-0.0094930995	0.0314223	-0.007139766	0.009798004	0.010533482	0.07696007	0.012285866	0.055192027	-0.03544196	-0.0213007	-0.012699956	-0.046033885	0.07084408	0.0012697394	0.037030626	0.02291479	0.05216813	-0.030985858	0.05083145	0.06545254	-0.07401117	0.088291325	-0.013209534	0.042702366	-0.07287302	-0.028427346	0.00065795274	-0.028606802	0.05491789	0.043815076	0.061927836	0.050395217	-0.056650445	-0.024453955	-0.025094843	0.014598425	-0.02343941	-0.015449926	0.017935844	-0.027032623	-0.034523174	-0.07678773	-0.011204888	-0.032158278	-0.038371336	-0.0108024515	-0.058070324	0.028658252	0.0426834	-0.013167507	0.014110519	-0.016241988	0.017625606	0.034666527	0.018839091	-0.012616611	-0.05316953	0.005885872	0.067314945	-0.010595751	0.012388009	-0.013340555	0.005042167	-0.04057213	0.090576455	-0.04671094	0.02715128	0.027410759	-0.07895487	-0.014455844	-0.0054555703	-0.049611468	-0.023010166	0.0011885463	-0.007276909	-0.05413723	-0.08738838	-0.05267564	-0.026411736	-0.017477669	0.041614074	-0.044063073	0.038024012	-0.036479276	-0.06730654	-0.059022084	-0.018463586	0.0027041603	-0.012735824	0.0077967145	-0.003753688	-0.047087308	-0.02089353	0.053603098	-0.052827783	0.0748996	-0.0018536821	0.022190569	0.004416525	0.01651739	-0.026067788	-0.06163198	-0.03646193	0.015836746	-0.03100499	-0.038636483	-0.02364934	0.047502562	0.040945083	-0.018135581	-0.030825483	0.008626353	-0.028811814	-0.02641613	-0.04965578	-0.01168537	0.052753437	-0.055918638	-0.028007347	-0.032935344	0.03802591	0.004339175	0.011372612	0.07083092	-0.07531866	0.03445808	-0.053719044	-0.05574343	-0.02337399	0.02118673	0.029108118	0.022074535	0.036561865	-0.03181914	-0.029675297	0.05012753	0.0257536	0.020897295	0.10572197	-0.02325771	-0.038691115	0.051430643	-0.028900217	0.024561172	0.022085093	0.0958403	-0.056520525	0.033708196	-0.069447756	0.029692419	-0.030388126	0.053355556	-0.052782055	-0.07273114	0.026400756	-0.04598302	0.051993962	0.00060687907	-0.04984322	0.028370727	-0.04443131	-0.03949907	0.014672086	-0.021446737	0.09218851	0.00097525003	0.047607716	0.004744952	-0.022965794	0.004094018	0.007030068	0.032990832	0.024079954	-0.032166865	-0.05111155	0.05300184	0.02932931	-0.037973326	-0.07151788	0.023705456	-0.0076275845	0.052282833	-0.06401787	0.067952074	-0.0025366866	-0.022684686	-0.045419756	0.029941631	0.04236096	0.022157496	0.04150165	-0.05729649	-0.019493002	-0.042755738	0.07339349	-0.028935008	0.022390764	-0.037970733	-0.06603991	0.025077293	0.07648227	-0.06708954	-0.036509514	-0.01028134	-0.00077249046	-0.05354727	-0.06332229	0.027271863	-0.033513855	-0.0035882953	0.0013540394	-0.041489	-0.012637982	-0.0138385985	0.033733867	0.00068037753	-0.007650054	-0.07321941	0.048787925	0.03398134	-0.069721535	0.05919656	-0.054332808	-0.101093486	-0.05838776	-0.000716731	-0.007347411	0.011525174	-0.030032877	0.029927844	0.028285017	0.099618234	0.03733809	0.019362979	0.046036586	-0.03933871	-0.013789312	0.031393014	0.06063686	-0.04203584	-0.027354605	0.05681341	-0.042933017	0.04320647	-0.03560675	0.029441737	-0.013425094	0.024018774	0.07708542	0.021610726	0.01104104	-0.08495928	0.014053796	0.091197826	0.07148991	0.022729272	0.02148341	0.011663988	0.031105043	-0.028745128	-0.00039794671	0.0074494253	0.04110755	-0.0037375535	0.031971946	-0.0099106785	0.05265755	-0.024203787	0.04403272	-0.08263872	-0.034789957	-0.08682814	0.081448406	0.0072394703	-0.031287394	0.044204567	-0.079038136	-0.010293258	-0.046248626	0.031216204	0.03224535	0.052222695	-0.018240416	-0.032479182	-0.006854226	0.09284739	-0.0039398056	-0.050065745	-0.01884883	0.09621889	0.03265855	0.0019286609	0.0006361625	-0.043651022	-0.011663379	0.028627092	0.013736891	0.022767067	0.07829711	0.037929755	-0.046013463	0.027046422	-0.087384455	-0.04442317	-0.053215735	-0.049431138	-0.033256326	-0.046449956	0.012526283	-0.023959473	-0.064580515	0.016096478	-0.010317361	0.04649048	-0.0502789	-0.0530093	-0.052662257	-0.029798254	0.039691124	-0.08988737	0.014558361	0.07507633	0.021027094	0.067908645	0.012527176	-0.005878673	-0.03152009	0.034570128	0.0025772618	0.062239572	-0.004443482	0.028527133	-0.017416097	0.011197503	-0.057214547	0.03376066	0.027684394	-0.04911492	0.0073283534	-0.020970028	-0.030433122	-0.030036086	-0.055396702	0.03578101	-0.02994308	0.026052264	0.019583687	-0.059938613	-0.0352933	-0.055084947	-0.039463647	-0.04877124	0.085099325	-0.027243765	-0.03119945	0.042976797	0.08602119	-0.017969223	0.031268917	-0.08686577	-0.015893534	-0.072819434	0.05535343	0.09229446	-0.03485749	-0.05853193	0.038086336	5.1555995e-05	-0.022164406	-0.09335926	0.049775884	0.024629653	-0.04035169	0.009299711	-0.011233077	0.024136018	0.009851668	-0.045769893	0.04275607	0.0033948417	0.06560218	0.039295387	-0.0022650335	0.026692681	0.0196309	0.026424682	0.04962175	-0.011393391	-0.013322339	0.063823715	0.056274608	-0.018855043	-0.030847441	0.024676545	0.015123473	0.037427474	0.06060313	0.0011060891	0.061671317	
k	0.04480183	0.009037481	0.027494334	0.0061939503	-0.031676523	0.03825058	-0.05369573	0.041401025	-0.111120835	0.0136611555	-0.06566964	-0.08846347	0.05380987	-0.002408306	0.06776955	0.019380182	-0.039213736	-0.026692996	0.041712917	-0.03116373	-0.020781739	0.01748369	0.021195175	0.01101878	-0.007138329	-0.07220279	-0.10291855	-0.05916204	0.012199923	0.053857442	0.023054792	-0.021289315	-0.0041305535	0.042805076	-0.007256869	0.018059256	-0.044696935	-0.028930096	1.4256103e-05	0.09471607	-0.020390324	0.03009453	-0.057843313	0.05611022	0.08244346	0.038082663	0.0011619305	0.05292046	-0.008912446	-0.011641992	0.010036953	-0.024351962	0.005607711	0.037038293	-0.05642285	-0.019684417	-0.0077509168	-0.024876084	0.01797293	-0.10480565	-0.020798516	-0.051135715	0.03926014	0.018059433	0.011540999	-0.0012302115	0.03872647	-0.032110076	-0.08108622	0.102651335	-0.03967046	-0.014270753	-0.008335234	-0.004692731	0.0072368286	-0.0038863332	0.059988465	0.02502873	0.030429749	0.03828988	-0.05913291	-0.082385525	-0.045265667	0.07386065	0.08386806	0.07720173	-0.049161423	-0.004271788	-0.06689747	-0.007531699	-0.026662104	0.0015812633	-0.0060208547	-0.019637393	0.007430887	0.083520345	0.055358768	0.0027395692	-0.033597443	-0.036979586	-0.025286585	-0.029971829	-0.054394357	-2.4745119e-05	0.04971369	-0.012951917	0.008319467	-0.05185791	0.03782331	0.00080419023	0.06074446	0.046603378	0.05450721	0.053868838	0.017055584	0.010161374	-0.050935492	0.043051984	0.06847299	-0.04538868	0.029674944	0.03864239	0.003751199	-0.030679334	0.012337508	0.047564752	0.0073521156	0.04724834	0.010084072	0.052253094	-0.008855783	-0.015991397	0.01919165	-0.09768569	0.08370506	-0.00610693	0.07980271	-0.06943396	-0.03592582	0.0769205	-0.0323692	0.053630833	0.043126084	0.012370324	0.036263283	-0.065638594	0.0065945615	-0.035339452	-0.014900693	-0.044577356	-0.013344442	-0.017764345	-0.020827368	-0.0059709265	-0.10878164	0.026720613	0.0017838834	-0.010602792	-0.032023612	-0.09214068	0.026447443	0.022808852	-0.036289807	0.041499864	0.0036630605	-0.016704602	0.04043182	-0.032400444	-0.003751809	-0.010584395	0.037121937	0.044681612	-0.0043676915	0.025423933	-0.049782608	0.002702744	-0.066022746	0.05453216	-0.0743885	0.042603172	0.060958978	-0.008557541	-0.03413376	-0.0126869455	-0.00014604256	-0.020786677	0.039322868	-0.023171224	-0.055741824	-0.111821435	0.01904403	-0.04311655	-0.054319434	0.039926738	-0.018182388	0.037328254	-0.019860838	-0.003899798	-0.0683236	-0.00047442663	0.02203733	0.026972134	0.046796236	-0.054228887	-0.04415742	-0.014479191	0.0049118046	-0.05120372	0.05659738	-0.0077561215	-0.027064469	0.043564536	0.0076971794	-0.009451193	-0.05375094	-0.017440135	0.0049073817	-0.0040836683	-0.05244952	0.011297401	0.01975922	0.015382468	-0.041917462	-0.037698373	-0.055857655	0.017423702	-0.080141276	-0.016431	-0.04939113	0.064016655	-0.0031240813	-0.049417224	-0.0618755	0.04844085	0.030150495	0.0051577967	0.07305702	-0.05849254	0.04161887	-0.04480667	-0.031970773	-0.00073200633	0.0021853745	0.05496276	0.027291367	-0.0030248563	-0.04866318	-0.022574212	0.039926343	-0.016539328	-0.016279247	0.11646858	-0.024063094	-0.02222284	0.066020325	-0.006125623	0.002151732	0.015218256	0.09502341	-0.03943932	0.025493046	-0.035992734	-0.014147798	-0.012112407	0.068195805	-0.021897333	-0.050913807	0.054447092	-0.032383915	0.078740805	-0.01809929	-0.084106945	0.06496829	-0.023184951	-0.024084479	-0.016712012	-0.038997408	0.11430837	0.044400364	0.035080206	-0.04907479	-0.011558666	0.017221585	-0.049179696	-0.030767536	0.0019309325	-0.08221508	-0.07908367	0.040828142	0.020532249	0.03354507	-0.03372827	0.01653552	-0.056605656	0.044448007	-0.030605083	0.039967697	0.00229666	-0.0144514805	0.022456814	0.047689233	-0.019299706	0.021726329	0.022442665	-0.026049715	-0.030902402	0.005252662	0.06189752	-0.032886278	-0.020904748	-0.0115237115	-0.07313778	0.028440384	0.10171801	-0.04659989	-0.033896863	0.018079799	0.044829056	-0.0321225	-0.036105815	-0.036781453	-0.039730992	0.03656803	0.05324805	0.014588377	0.02588769	-0.02600475	0.06404138	0.006258131	-0.0063537485	-0.02198351	-0.01051966	0.0014575766	-0.06909025	0.053731944	-0.0419011	-0.088689305	-0.08005382	0.06723526	-0.010579865	0.02056904	-0.02337816	0.069403835	0.057529073	0.111662604	-0.018244626	0.027365837	0.05277508	-0.020778239	0.015135477	0.014551242	0.0758783	-0.013757266	-0.034956668	0.014520978	-0.105768405	-0.049010556	0.00024579026	0.016208604	0.015909184	-0.027587239	0.101308174	-0.051984906	0.030274939	-0.096652776	0.03262995	0.11570141	0.038440786	0.0388307	0.04680984	0.0029538467	0.023854898	-0.063669614	0.02575885	-0.05789522	0.04962944	0.00498637	0.015398774	-0.0029942056	0.060095266	-0.005303666	0.023973925	-0.08638452	-0.02761641	-0.11434644	0.09746222	0.023686348	-0.014255117	0.030641615	-0.08431782	-0.034848474	-0.0716316	0.01046607	0.012592588	0.009394077	0.0053534145	0.020064507	-0.0009277029	0.082511686	-0.00050106127	-0.018186068	-0.05532525	0.0575552	0.050726026	0.028902559	-0.030593352	-0.034986757	0.010744509	-0.04976976	0.009176394	-0.008986688	0.069193356	0.03591581	-0.02831328	-0.009333873	-0.01610971	-0.041461978	-0.05498217	-0.036139358	-0.057652455	0.008058364	-0.011097942	-0.043496195	-0.031020535	0.031232785	0.01937517	-0.02815793	-0.01866105	-0.022721568	-0.068328924	0.03507985	-0.003864904	-0.10304797	-0.02962708	0.014244822	0.04775521	0.03346844	0.031876523	-0.01080676	-0.062513806	0.03255707	-0.0014258614	0.013957679	-0.050829213	-0.04949626	0.0029885538	0.035528034	-0.054504164	-0.036452804	0.0067507224	-0.0101315435	0.018073205	0.004935841	-0.0020596255	0.02297098	-0.033428382	0.03558255	0.0062279124	-0.013573973	0.039620798	-0.05252115	-0.0060840445	-0.03653537	0.006073042	-0.046207428	0.07942775	0.0022539853	-0.025026638	0.038308214	0.11787072	-0.026888996	0.04084985	-0.07223563	0.026748147	-0.08472745	-0.011989613	0.10879997	-0.049739894	-0.026298754	0.08619799	-0.023849	-0.0001924879	-0.07310322	0.01895332	-0.007970781	-0.04616327	-0.021512311	-0.017667934	0.043396853	0.0008389804	0.02089202	-0.023267007	-0.013915494	0.0610778	0.03028117	0.063714765	-0.009761403	0.00036104737	-0.016816465	0.041174594	-0.008329569	-0.017726865	0.06945596	0.036341652	-0.00934232	-0.0057805153	-0.006354878	0.023039576	0.0054108575	0.05545954	-0.013790522	-0.0102596665	
l	0.05174584	-0.028009174	-0.0034185518	0.019255318	-0.033117194	0.0075071687	-0.024837676	0.040468603	-0.09276934	0.05773559	-0.048230283	-0.03757494	0.0583406	-0.0037576712	0.0806826	-0.010887635	-0.034562614	-0.018115303	0.0029057038	-0.016368773	-0.04477389	-0.014763144	0.029360851	-0.009438307	0.026357418	-0.080990314	-0.079611264	-0.06267935	0.06821411	0.06575924	0.007591774	-0.048785187	0.02483981	0.08542847	0.018066188	-0.007604841	-0.029198978	-0.057660926	0.008853037	0.051858533	-0.056449633	-0.0064597377	-0.048584294	0.051069148	0.055616207	0.043349553	-0.019898137	0.057044167	-0.023039838	-0.0061959294	-0.03775872	-0.03503731	0.0101821665	0.04041887	0.032091744	-0.07278229	-0.029945843	0.018277826	-0.04014661	-0.08691877	-0.018471701	-0.056421418	0.056013692	0.038777098	0.029144114	0.04595228	0.037928257	-0.042593583	-0.052557666	0.077474646	-0.01518812	0.003982343	-0.01166243	-0.058016263	-0.0055620284	-0.066716686	0.03721803	0.074024364	-0.06370112	0.04504767	-0.0393411	-0.09435933	-0.042753007	0.04076573	0.032175563	0.07152871	-0.08452625	-0.02501533	-0.052688878	-0.030893624	-0.055709407	-0.014923973	0.0099076945	-0.0069210734	-0.065500386	0.07980415	0.054043233	-0.036820866	-0.03891497	0.0017969954	-0.054031424	-0.018259702	-0.064216375	0.00769184	0.025842724	0.0064433543	0.0378572	-0.05949877	0.0634653	0.037306953	0.07244938	0.01930437	0.06857633	0.00868153	0.046914812	-0.002279033	-0.0027657351	-0.0038036616	0.07736243	-0.01374455	0.041068703	-0.04169919	-0.010099341	-0.019137422	-0.043685555	0.07682458	0.006359258	0.042915475	0.036332227	0.057143588	-0.0069481204	0.031042144	0.054327857	-0.0763831	0.0849255	-0.00273904	0.052021347	-0.07343995	-0.02710325	-0.0055871867	-0.01961955	0.0731006	0.05568467	0.06748953	0.053158436	-0.06086854	-0.027741825	-0.034473825	-0.007059402	-0.018862797	-0.016139451	-0.0026270624	-0.007003727	-0.040348075	-0.07865767	-0.010832046	-0.030058784	-0.03705468	-0.0033431998	-0.06701617	0.028793117	0.04235688	-0.0084055355	0.030036882	-0.032745898	0.03204003	0.03813068	0.009699197	-0.037760336	-0.06281234	0.02381833	0.068652526	-0.010904857	0.00038393072	-0.033358052	0.014228322	-0.051317785	0.08713251	-0.047036495	0.03520634	0.020363089	-0.06921761	-0.006768647	0.0036883594	-0.027853703	-0.011275865	0.004041043	-0.016023457	-0.05101935	-0.08579045	-0.03844531	-0.027246827	-0.01902198	0.039581306	-0.032914635	0.041158456	-0.053586032	-0.051643282	-0.060723253	-0.005860156	0.009487416	-0.0015668506	0.016961187	-0.018240616	-0.061357874	-0.011524822	0.047207016	-0.04257311	0.07512674	-0.017963197	0.01747835	-0.001091129	0.008304158	-0.015126093	-0.0569656	-0.03719444	0.0135355815	-0.046291802	-0.06371173	-0.019782808	0.054410785	0.031495348	0.005221788	-0.038815077	0.021792209	0.012599522	-0.034419224	-0.051059652	-0.015269954	0.053384174	-0.041855704	-0.030438215	-0.04066295	0.028942842	0.008542563	0.025395852	0.065586604	-0.086907364	0.02273539	-0.049264584	-0.06384429	-0.01600853	0.00078804384	0.05096241	0.024097245	0.026473926	-0.04166715	-0.037093747	0.070385665	0.037117843	0.03916855	0.09895679	-0.040336497	-0.0504391	0.054064147	-0.040523496	0.022548068	0.0213278	0.095279895	-0.062220875	0.017104942	-0.05985145	0.026673881	-0.019166062	0.06505561	-0.03021705	-0.07453842	0.028063389	-0.053232424	0.056266993	-0.005685993	-0.043371934	0.03578674	-0.038623933	-0.050623365	-0.0011883319	-0.010247122	0.08828303	0.016478611	0.050254352	-0.0037083789	-0.010378504	0.008919417	0.0059268684	0.037301004	0.012659572	-0.030753361	-0.05570433	0.07098603	0.020960137	-0.03348673	-0.06638489	0.024674261	-0.016640464	0.067570485	-0.06893458	0.079012044	-0.0021376887	-0.01451709	-0.027061952	0.034357253	0.053280406	0.031570505	0.05346946	-0.041866254	-0.0126242265	-0.031699345	0.08128005	-0.028824288	-0.0030877055	-0.02352654	-0.06520283	0.02417826	0.074196085	-0.05916935	-0.034653503	-0.0005461878	-0.014730409	-0.04828821	-0.05277785	0.011873656	-0.021007866	0.0008384947	0.01954176	-0.012768771	-0.009006383	-0.008701836	0.033090368	0.012902631	-0.010686399	-0.06775181	0.03043802	0.022982817	-0.061070852	0.052547652	-0.049555548	-0.09583606	-0.055967454	0.024239948	-0.014789697	-0.009616455	-0.044435084	0.029644258	0.03133667	0.09524851	0.038254853	0.035767663	0.050255258	-0.022108315	-0.01728829	0.033638183	0.06488089	-0.03407893	-0.036727652	0.07028867	-0.034473598	0.03583457	-0.032773532	0.034050144	-0.015997773	0.043043893	0.07520095	-0.0025319613	0.01994318	-0.08095891	0.0054325033	0.086906336	0.06564149	0.029586516	0.031866815	0.0046007247	0.027743148	-0.047253486	0.011856213	-0.0021288083	0.055429637	-0.027611645	0.04126329	-0.018797081	0.05126367	-0.02207708	0.042525318	-0.089567855	-0.050685685	-0.08469709	0.073147774	-0.0048155054	-0.04417301	0.04536831	-0.08685591	-0.023360493	-0.039343514	0.03006281	0.034111496	0.04567447	-0.030149471	-0.031607218	0.014234829	0.08834761	-0.0027717734	-0.040740475	-0.027915059	0.09608178	0.047472533	0.0060247034	-0.003831486	-0.0599465	-0.024767634	0.033035647	0.032036047	-0.009737631	0.07517767	0.031212412	-0.052546345	0.004863042	-0.07769748	-0.06263268	-0.051189635	-0.0635836	-0.028300688	-0.039316926	0.006296685	-0.041833155	-0.06586281	0.014945528	-0.009467821	0.021317171	-0.04781091	-0.054144897	-0.071037345	-0.010372583	0.025566615	-0.08160307	-0.014087548	0.071470425	0.02503946	0.06804322	0.030447543	0.007907399	-0.038839214	0.036701303	0.0066381227	0.067977294	0.008312191	0.006721484	-0.0010767764	0.027652588	-0.06430485	0.032560278	0.02707414	-0.042429294	-0.0021440065	0.00062320457	-0.034324158	-0.013025736	-0.049158685	0.03793803	-0.017717948	0.015380888	0.028915511	-0.05372033	-0.045037407	-0.03637264	-0.014629525	-0.057467833	0.084831685	-0.023471363	-0.039618164	0.04162277	0.08510607	-0.008779268	0.019568883	-0.085997894	-0.029821197	-0.069573276	0.0542683	0.08919577	-0.03260156	-0.056887787	0.04723909	0.005270935	-0.008653931	-0.08687663	0.03882338	0.019309556	-0.041334502	-0.0072543323	-0.027147412	0.030475162	0.008182487	-0.055338994	0.020691913	0.007822572	0.06966955	0.03835689	0.025538389	0.033669665	0.01786478	0.015605765	0.039071422	-0.017406689	-0.019888883	0.072523504	0.06663372	-0.019577462	-0.030738076	0.015426952	0.022476269	0.033277754	0.060069285	-0.014082658	0.044203915	
m	0.04891515	-0.031726535	-0.017023355	0.044641703	0.0018729529	-0.02297935	-0.027549624	0.0138937365	-0.093333505	0.05244637	-0.048456714	-0.047483377	0.08823209	0.034827013	0.08160383	-0.003138071	-0.014220846	0.013281264	0.0010101816	-0.0007574045	-0.04408	0.018823484	-0.024273533	-0.00045613566	0.03742361	-0.07810486	-0.07790163	-0.04444481	0.047784474	0.06517496	0.024017356	-0.06471134	0.04179017	0.06744729	0.015691392	-0.020342842	-0.007945199	-0.06399983	0.028122257	0.0405402	-0.05830144	0.0063692816	-0.06425822	0.05942151	0.06327392	0.070256755	-0.03183697	0.058854546	-0.033447165	0.0004419164	-0.014972023	-0.018712047	0.021615198	0.044737447	0.04408163	-0.07832793	-0.040909518	0.038355805	-0.033664856	-0.088326186	-0.0032415532	-0.06236874	0.04063318	0.048817515	0.032798257	0.034334604	0.075329766	-0.056494012	-0.029685713	0.07870705	-0.03207378	-0.009237851	-0.0050232755	-0.044585846	0.028879594	-0.07660047	0.03017497	0.04461351	-0.07574343	0.042048756	-0.05975532	-0.08451779	-0.068821184	0.03575676	0.048286196	0.07922305	-0.08908589	-0.026103038	-0.0376432	-0.016544923	-0.05240222	-0.013142846	-0.0063628955	-0.003195554	-0.06324962	0.08922408	0.03963673	-0.04855503	-0.046250425	-0.03708033	-0.056064095	-0.032876574	-0.052010275	0.023804305	0.031444952	0.004872634	0.023247587	-0.059747577	0.057222847	0.014844599	0.05201183	0.01739779	0.07790107	0.023190908	0.0072674253	-0.013448	0.020747988	-0.029458493	0.07027217	0.010902818	0.039124463	-0.053886276	-0.03188543	0.015944961	-0.03025538	0.07167291	0.021116348	0.024230804	0.021362878	0.050777856	0.01197557	0.054907113	0.058426663	-0.07111607	0.08252853	-0.010473012	0.059671868	-0.0634851	-0.02018559	-0.014191008	-0.05256019	0.028933534	0.041190993	0.04752334	0.058704026	-0.023605263	-0.034819834	-0.028021984	0.012543489	-0.0303007	-0.032393526	-0.00043551959	-0.0093923025	-0.037519388	-0.07257104	-0.017098254	-0.038138278	-0.044723004	0.012209355	-0.051393412	0.04499191	0.00046681272	-0.021353122	0.007420045	-0.024626913	0.010962156	0.04487521	0.014516179	-0.011856454	-0.02686321	0.01437327	0.021311488	-0.035495393	0.022534104	-0.035408173	0.020309469	-0.029166484	0.08090894	-0.045129612	0.018346317	0.019665897	-0.070326075	0.016247166	0.0081238	-0.040569525	0.010149827	-0.0019941577	-0.049629904	-0.061508495	-0.08260974	-0.063197255	-0.047388315	-0.004816146	0.06253656	-0.0240003	0.033862278	-0.03514923	-0.06494869	-0.06289282	-0.024467392	0.009192449	0.03051456	0.030482922	-0.030957242	-0.03270718	-0.007409965	0.05096665	-0.06675623	0.074609384	0.0009990229	0.043203983	-0.018087732	0.00075743516	-0.01499283	-0.06617837	-0.02859779	0.019989759	-0.05926709	-0.042562157	-0.018811172	0.05562364	0.0060572647	-0.003459487	-0.050340306	0.058299612	-0.013566631	-0.018690089	-0.029411353	-0.046895824	0.07035081	-0.049614504	-0.061808355	-0.026212879	0.031759832	0.0065518687	-0.0070664003	0.068317726	-0.07816753	0.033067547	-0.068555616	-0.04860165	-0.034540668	0.008366774	0.028856115	0.033773247	0.011851639	-0.038924437	-0.03678577	0.032382697	0.058026582	0.019990154	0.09861827	0.0035189283	-0.058028698	0.021157023	-0.029597048	-0.007930476	0.015632672	0.09170926	-0.03826109	-0.002180902	-0.07399043	0.018061219	-0.038801458	0.06626065	-0.061047584	-0.05476294	0.019036438	-0.053821582	0.030421577	0.010807172	-0.06338451	0.006062765	-0.033217907	-0.060234684	-0.0013885618	-0.033811904	0.09028725	-0.025423108	0.043044362	0.023624482	-0.024119345	-0.005132556	0.019649046	0.0159886	-0.024216583	-0.019812293	-0.036686707	0.065489054	0.008186383	-0.00967599	-0.080507316	0.012114127	-0.0012861209	0.061848715	-0.08173035	0.07579206	0.022156605	-0.038181927	-0.03248854	0.003939238	0.046674486	0.033838995	0.05634048	-0.04923413	-0.041972913	-0.0279299	0.051202573	-0.0337068	0.040610947	-0.03856494	-0.053641707	0.04040465	0.07681962	-0.074668735	-0.04217735	0.040495798	0.02498772	-0.048094	-0.07404931	0.03482162	-0.024415895	0.003292198	-0.017304288	-0.020260872	-0.034178436	0.01743013	0.0287401	0.017257161	-0.012813701	-0.070288666	0.048278097	0.028190313	-0.062516265	0.06684113	-0.04975751	-0.09568355	-0.052345388	0.014107461	-0.020011202	-0.01841708	-0.051992804	0.05361117	0.007046931	0.09710279	-0.005357113	0.0049197986	0.048986714	-0.030315844	-0.023534272	0.03865416	0.0522404	-0.02153445	-0.002924038	0.049010634	-0.028505178	0.023796448	-0.009471425	0.03951989	0.03267675	0.018586716	0.06943865	0.00044817722	0.015489731	-0.07512401	-0.013415675	0.08498365	0.067991026	0.017104752	0.055094097	0.06047597	0.02270768	-0.023271505	0.01473662	0.01735822	0.044202853	0.011541554	0.03401347	-0.017234435	0.04043845	-0.039749727	0.04964414	-0.07650874	-0.027740033	-0.07874703	0.07788804	-0.024228165	-0.025683483	0.0448935	-0.08168885	-0.00083299173	-0.04905364	0.05817089	0.027690046	0.051545966	-0.034367554	-0.03301352	-0.030944664	0.082597874	0.031273976	-0.06232439	-0.017712032	0.09645668	0.051028114	-0.00082102965	-0.0028055962	-0.046733957	-0.011172166	0.060074065	0.0030090474	0.027119452	0.079229	0.033975434	-0.034765817	-0.0012505135	-0.079582065	-0.060472146	-0.039337024	-0.04114698	-0.039751895	-0.060264386	0.004427336	-0.022853209	-0.033094663	-0.0013821899	-0.009293497	0.019782396	-0.020231057	-0.0288903	-0.065893196	-0.010889447	0.062755145	-0.08801732	0.04018315	0.06882654	0.038133185	0.06544736	0.03849024	-0.00495757	-0.047904097	0.012969088	-0.003435876	0.07372879	-0.009352475	-0.009262675	-0.015447591	-0.0021025767	-0.04219543	0.03254627	0.03240633	-0.054278877	0.010828734	-0.023920458	-0.027282432	-0.02717803	-0.029974895	0.02695585	-0.03563073	0.003458523	0.016768776	-0.05460269	-0.023314938	-0.06149469	-0.024960034	-0.05005148	0.08582511	0.007037542	-0.026724337	0.042197414	0.076085545	0.024300264	0.044929095	-0.08984143	-0.013438992	-0.06527954	0.07871024	0.08402159	-0.03771365	-0.04281619	0.033177324	-0.00254052	-0.03135465	-0.08620681	0.028576255	0.01366697	-0.0322129	0.0111006815	-0.016131649	0.033190034	0.016271867	-0.047471087	0.047723275	-0.00047961884	0.03925141	0.03234442	-0.0012548026	0.007806648	0.030518522	0.018372912	0.0625088	-0.023131588	-0.021059368	0.05539532	0.069531366	-0.023958953	-0.015582866	0.040040087	0.021128746	0.04412268	0.060764592	0.006216706	0.040446173	
n	0.047051642	-0.037198536	0.015361965	0.027682822	-0.0046503576	0.007223773	-0.022532014	0.029749582	-0.088128574	0.061960887	-0.054722372	-0.064289145	0.06345729	-0.005662386	0.08411644	-0.010626231	-0.024686024	0.013916434	0.019873308	-0.030046748	-0.05363005	0.0039685494	0.013994929	-0.0069848117	0.017714929	-0.09028959	-0.07950374	-0.050154977	0.04813495	0.084236085	0.03432863	-0.04362724	0.041901074	0.081435986	0.008380587	-0.0008671965	-0.033758335	-0.05114375	0.0091729015	0.059623733	-0.06306978	0.0077445763	-0.051897973	0.070487015	0.07414478	0.04760528	-0.01545511	0.0698155	-0.030843172	-0.02762911	-0.033186108	-0.04290884	0.011609365	0.06261643	0.044774275	-0.06846679	-0.021311011	0.02842204	-0.02953943	-0.088925086	0.001565775	-0.05089713	0.042869985	0.043292962	0.016838457	0.017613621	0.057113238	-0.033897176	-0.06745175	0.08482787	-0.03846051	0.0017654607	-0.00018355482	-0.048417453	0.011317807	-0.07515056	0.044140507	0.053452324	-0.060080666	0.036222335	-0.034613673	-0.09729848	-0.048238434	0.034669213	0.020518534	0.056173768	-0.079151355	-0.034156445	-0.045774136	-0.014705464	-0.055162717	0.0028652877	0.014930585	0.020588486	-0.057755176	0.08545302	0.060483884	-0.05136419	-0.03975671	-0.017524617	-0.058229007	-0.029657258	-0.06802945	-0.0030037826	0.024176547	0.016107028	0.028241813	-0.064311184	0.046833787	0.025171429	0.06491023	-0.0024834783	0.07173368	0.005593879	0.038877923	0.0004288201	0.02250922	0.014035434	0.072015114	-0.010253709	0.04548245	-0.059694838	-0.011707684	-0.020816555	-0.030461296	0.06618807	0.0036152794	0.034840327	0.022129526	0.061687887	0.009556435	0.0395876	0.05191821	-0.08106821	0.088477276	-0.027846288	0.045324586	-0.06538749	-0.035303302	0.004744598	-0.008957309	0.049310252	0.059572686	0.04573189	0.059883177	-0.04294435	-0.020405632	-0.042459	-0.00923079	-0.029252086	-0.020392137	0.0027784554	-0.034022737	-0.012031441	-0.073924914	0.021738486	-0.038364142	-0.036906682	0.018047597	-0.071474545	0.036380503	0.041476496	-0.011140614	0.011264293	-0.025363127	0.024453854	0.0425507	0.011490858	-0.02869906	-0.033741094	0.014557143	0.06805778	-0.004036046	0.021357007	-0.04054778	0.010440879	-0.05050325	0.08666857	-0.0678506	0.03696794	0.026553994	-0.07515052	-0.022502635	-0.012851445	-0.018164063	-0.034933005	0.024147404	-0.04207571	-0.06489003	-0.086813845	-0.03853254	-0.03520975	-0.016687283	0.06523257	-0.042206362	0.016295014	-0.04618644	-0.054771055	-0.059739336	-0.0068481476	0.014584695	0.024821406	0.019585036	-0.010371103	-0.042488538	-0.009204965	0.04819087	-0.06380976	0.07583609	0.008076198	0.018405806	0.010726705	0.017370915	-0.0050329994	-0.07191511	-0.022029217	0.010597988	-0.023018518	-0.043220848	-0.025330199	0.036743924	0.017516932	-0.012269584	-0.03816226	0.0054669324	0.0025078228	-0.022797178	-0.055418797	-0.028272903	0.051023085	-0.059304886	-0.04163081	-0.025148334	0.048976574	0.011817649	-0.008753611	0.08060232	-0.05672322	0.036609884	-0.051350724	-0.064282514	-0.020842785	-0.0020861626	0.035101358	0.028089313	0.019728772	-0.056174826	-0.027733685	0.045941044	0.016080577	-0.006616571	0.10165235	-0.029956419	-0.05913651	0.04638433	-0.036701705	0.01607206	0.013358887	0.09542788	-0.05753648	0.03339781	-0.055694386	0.0010266068	-0.03521705	0.058238585	-0.017038124	-0.07298804	0.04089608	-0.05253597	0.045883365	-0.00938622	-0.061029084	0.018296145	-0.028744515	-0.04419652	-0.026476566	-0.028878944	0.09007607	0.007633934	0.054917138	0.021077093	-0.013330431	0.010589497	0.029569516	0.017121585	-0.0009007739	-0.015677022	-0.05477092	0.059569485	0.024200153	-0.012103812	-0.08161887	-0.0067833625	-0.008755857	0.064311735	-0.06749137	0.059761535	0.0046501784	-0.025894735	-0.044936586	0.03005231	0.027991416	0.03619752	0.049695782	-0.059862334	-0.042712133	0.0019058997	0.06826321	-0.0346565	0.03124262	-0.04736939	-0.077024415	0.045665175	0.08192277	-0.049831666	-0.04801831	0.02649314	0.020479137	-0.030501222	-0.053792756	0.018449275	-0.014469169	-0.0073083476	0.020758817	-0.012859934	0.0022154253	-0.018060654	0.03937369	0.0032889333	-0.010021523	-0.062893294	0.02776455	0.029415002	-0.083036	0.07615466	-0.03503673	-0.09644198	-0.04786774	0.024946943	-0.0024998016	-0.009250784	-0.030066121	0.037429366	0.021922054	0.0965142	0.027915819	0.0103989635	0.047572076	-0.04410878	0.011944891	0.040448837	0.07267361	-0.027454501	-0.026862651	0.03228322	-0.021065392	0.032861795	-0.029025644	0.023279948	0.0080503905	0.025145775	0.08013067	-0.008925288	0.027170472	-0.090206586	0.027784865	0.08823782	0.08279624	0.04490281	0.045177765	0.02077003	0.04499323	-0.05945291	0.0133679025	-0.023286317	0.056264736	0.012615122	0.025225256	-0.0105799595	0.056602523	-0.02791392	0.055562444	-0.08893852	-0.038212635	-0.08639791	0.08443719	-0.0063226144	-0.034301437	0.052620362	-0.08426531	-0.025724908	-0.030904587	0.039425593	0.025269529	0.05473322	-0.017506706	-0.0039602397	-0.0075801425	0.08525134	-0.0036994969	-0.03898323	-0.023562666	0.09774493	0.055099852	0.018571867	-0.0026036163	-0.050416272	0.009362242	0.05432491	0.026043916	0.018157419	0.06597502	0.004629885	-0.023016613	0.00318614	-0.06435813	-0.03409485	-0.044430356	-0.056329884	-0.024686005	-0.045419242	-0.000868346	-0.038300812	-0.07740743	-0.0026053276	0.014981964	0.020727236	-0.051830158	-0.0475513	-0.073863916	-0.004705308	0.032247126	-0.092945054	0.005911337	0.070576824	0.019284932	0.04638898	0.010725858	0.010856292	-0.0568493	0.033873174	-0.0059178863	0.06607695	-0.021831425	0.025417335	-0.031839065	0.0106023345	-0.06607243	0.022684868	0.02697379	-0.049945176	0.0065079946	-0.010165416	-0.029481405	-0.015040071	-0.040411524	0.040019	-0.03028785	0.019888507	0.027407734	-0.041287053	-0.026615301	-0.051509388	-0.046366334	-0.057672556	0.086711966	-0.018434787	-0.038485363	0.047078304	0.087585375	0.003620076	0.032653023	-0.08872348	0.00559188	-0.045543905	0.06852981	0.08732009	-0.043501865	-0.04394001	0.06046553	-0.0053310855	-0.023913594	-0.08308705	0.041062992	0.027177585	-0.044078268	0.019218242	-0.015783293	-0.004384005	-0.010142425	-0.040634446	0.04468618	0.019840784	0.06929172	0.036732826	-6.761184e-05	0.023877602	-0.004548995	0.026410291	0.059492692	-0.014499444	-0.017580723	0.056333497	0.054652296	-0.02328324	-0.022618493	-0.0011890087	0.0129043795	0.007981478	0.048403308	0.02091172	0.031904135	
o	0.055235643	-0.029375942	0.003620928	0.013400844	-0.038845155	0.03919722	-0.0011030207	0.019480681	-0.107940964	0.045352425	-0.053329516	-0.06258617	0.0684178	-0.0016202691	0.077179156	-0.00026466593	-0.015020521	-0.013715712	0.031002901	-0.04921265	-0.051535215	0.01406531	-0.0019185098	0.009289446	0.023739243	-0.07668829	-0.08630832	-0.06256868	0.02289682	0.051733684	0.038440477	-0.04013761	0.03149998	0.06580007	0.03722346	0.021025464	-0.023740254	-0.036660083	-0.013073426	0.05989873	-0.03788083	-0.0076082437	-0.04985361	0.06059336	0.0522007	0.04501783	0.0032234082	0.06282918	-0.0020288827	-0.007465098	-0.019011317	-0.022691261	0.019295331	0.0668081	0.0023508002	-0.041331567	-0.044966042	0.00043565527	-0.030248595	-0.098020196	-0.011294521	-0.0465544	0.05199139	0.039262097	0.010643086	-0.0096658105	0.0135092605	-0.042291235	-0.07302891	0.06825779	-0.040951222	0.008262185	-0.0066906107	-0.01705858	0.008739846	-0.061526116	0.07368936	0.04293804	-0.043965388	0.028040837	-0.04379614	-0.09876379	-0.03131516	0.076284245	0.046369996	0.078320995	-0.06044296	-0.013491665	-0.06446418	-0.04159074	-0.03649487	0.0012180919	0.04070487	-0.007974989	-0.039606776	0.073972605	0.028456822	-0.029783122	0.0035278439	-0.035484776	-0.029504782	-0.01422643	-0.061288223	-0.026283966	0.030918742	-0.0036835496	0.010978098	-0.06370866	0.038512625	0.051359706	0.08391539	0.012061076	0.065836824	0.0210507	0.044839345	-0.010942962	-0.02677647	0.044472586	0.08118047	-0.046609007	0.014848133	-0.025453823	-0.03500232	-0.026789472	-0.035279803	0.059541114	0.018987618	0.039349943	0.010197517	0.073918305	-0.0038165923	0.031667843	0.054735404	-0.09292803	0.092956804	-0.016065259	0.018277284	-0.0719632	-0.0586205	0.032420672	0.01720681	0.05088672	0.05519473	0.022364065	0.048038796	-0.057150256	-0.010541708	-0.011046027	-0.029330326	-0.021217046	-0.009628622	-0.00883819	0.026205895	-0.009530932	-0.06673522	0.020593042	0.0058869543	-0.03847049	-0.01022429	-0.0748699	0.021374416	0.042970076	-0.016495159	0.044322897	-0.004847114	0.0012855739	0.026405664	-0.027205456	-0.0040587126	-0.036860205	0.019948272	0.05823435	-0.033163678	0.02517769	-0.030414179	0.020024968	-0.079214066	0.08210893	-0.070538834	0.014711073	0.039177623	-0.07241131	-0.0019361909	-0.028474726	0.012983803	-0.0090693245	0.023312118	-0.054736212	-0.06942717	-0.103075534	-0.00040599983	-0.033068646	-0.035789575	0.052897334	-0.032035675	0.042802952	-0.034572445	-0.03509106	-0.05767352	-0.020463647	0.014559109	0.0030471354	0.04104404	-0.03833928	-0.038245715	-0.012316639	0.06632956	-0.06617694	0.04737878	-0.031577323	0.0084479945	0.022733662	0.0015583172	0.017778678	-0.052929994	-0.012087497	0.013477037	-0.012633162	-0.052059308	-0.012888215	0.059373785	0.04580508	-0.008739833	0.0068309465	0.0078065754	-0.0011308019	-0.015952896	-0.050822604	-0.021769477	0.025545971	0.018122803	-0.04489561	-0.046508692	0.062979154	0.00805641	0.0033399626	0.07093207	-0.0665841	-0.0066441866	-0.045577057	-0.047329105	0.0023928264	-0.02048051	0.041495916	0.024263121	0.007745324	-0.032110617	-0.033191886	0.03807106	0.018025557	0.017596452	0.1137648	-0.043266613	-0.045303468	0.04773309	-0.010152898	0.02094125	0.0068587023	0.09473746	-0.028045436	0.051072635	-0.034433935	-0.0068426323	-0.04386492	0.06371848	-0.029883148	-0.06081197	0.034239512	-0.037920713	0.069872394	-0.0118562095	-0.06175197	0.04060537	-0.030494293	-0.027420571	-0.009599145	-0.02917995	0.10695599	0.032115333	0.03589973	-0.03999306	-0.017070077	-0.008653134	0.0087073445	0.001550033	0.022824768	-0.06623952	-0.08858636	0.07194771	-0.009087866	-0.01411285	-0.072122954	0.012739858	-0.04547764	0.05948256	-0.060651492	0.060863484	0.005839704	-0.022954917	-0.030049015	0.050118715	-0.0031196922	0.03556488	0.05657904	-0.046999022	-0.03040327	0.015394516	0.045278076	-0.059786767	-0.0017924196	-0.018863337	-0.0646298	0.036427934	0.09085636	0.00058767496	-0.03419453	0.028892703	0.013100577	-0.04732662	-0.06981634	-0.012263325	-0.018951736	0.02539277	0.021801852	0.035610337	-0.013483531	-0.027437942	0.043284014	-0.0005327861	0.0067994935	-0.046449415	0.014170451	0.02027439	-0.06605566	0.06110055	-0.042949386	-0.0975796	-0.049190495	0.03592142	0.0011211237	0.006757865	-0.04780085	0.038438343	0.047050867	0.105431035	0.015739314	0.012561781	0.05319576	-0.041188244	-0.0002823934	0.030795487	0.08598941	-0.06732957	-0.030154387	0.0344073	-0.07009565	0.0057743513	-0.047597937	0.025583899	0.0045509897	0.010481434	0.09136177	-0.043394268	0.05823329	-0.103316925	0.008798563	0.10304723	0.060509257	0.052341774	0.037771195	0.027856372	0.030671041	-0.06557742	0.013587773	-0.025541818	0.066818394	0.005294093	0.04055435	-0.0007532975	0.05768142	-0.049281016	0.052486796	-0.111275926	-0.03992989	-0.097148545	0.08966569	0.02585782	-0.03228003	0.055326756	-0.07976825	-0.048713066	-0.054250292	0.022797553	0.021679623	0.056262776	-0.032169558	-0.024127096	-0.004597913	0.08104028	-0.007240166	-0.0056976164	-0.008071885	0.09787629	0.062617004	0.026355242	-0.021756483	-0.050798215	-0.0053063384	0.030341607	0.013372013	-0.004909523	0.0617656	0.024144331	-0.050131507	-0.004806949	-0.070848204	-0.036006156	-0.022605771	-0.07364039	-0.039671607	-0.018148137	-0.010036869	-0.019163288	-0.04436522	-0.0130163785	-0.017141204	-0.02456477	-0.037460666	-0.039905813	-0.075166866	0.008181826	0.016491087	-0.09069891	0.01804838	0.03576993	0.051698286	0.041255675	0.038228154	-0.0055095227	-0.058775034	0.02452523	-0.010684311	0.07614401	-0.021769995	0.03170853	0.0087515	0.033445038	-0.052559	0.007522206	0.015589249	-0.018343344	0.012575943	0.028482402	-0.018185643	0.0052433233	-0.04463072	0.04252948	-0.0031573055	0.0066485098	0.031570528	-0.052267723	0.013893233	-0.04073682	-0.010468108	-0.054656483	0.07619305	-0.024239358	-0.04165297	0.058813244	0.10650293	-0.00717255	0.039876197	-0.07219741	-0.01884506	-0.06449022	0.06924637	0.10351978	-0.04453274	-0.035582505	0.06940675	0.017469734	-0.0026239678	-0.08328311	0.030131776	-0.018320305	-0.033775296	-0.025056968	-0.012368997	0.014813719	0.0028760748	0.012894567	0.021638121	0.011934101	0.05771027	0.06291775	0.027072575	0.014001371	0.009169629	-0.015629062	0.045706354	0.0021784618	-0.045423172	0.07605801	0.03770346	-0.043996014	-0.00068329513	-0.02447914	0.014558044	0.009316716	0.048254117	0.01685437	0.017160654	
